{"learner":{"attributes":{"best_iteration":"291","best_ntree_limit":"292","best_score":"1.1270532596046177","scikit_learn":"{\"use_label_encoder\": null, \"n_estimators\": 500, \"objective\": \"multi:softprob\", \"max_depth\": 6, \"max_leaves\": null, \"max_bin\": null, \"grow_policy\": null, \"learning_rate\": 0.05, \"verbosity\": null, \"booster\": null, \"tree_method\": \"hist\", \"gamma\": null, \"min_child_weight\": null, \"max_delta_step\": null, \"subsample\": 0.8, \"sampling_method\": null, \"colsample_bytree\": 0.8, \"colsample_bylevel\": null, \"colsample_bynode\": null, \"reg_alpha\": null, \"reg_lambda\": null, \"scale_pos_weight\": null, \"base_score\": null, \"missing\": NaN, \"num_parallel_tree\": null, \"random_state\": 42, \"n_jobs\": null, \"monotone_constraints\": null, \"interaction_constraints\": null, \"importance_type\": null, \"gpu_id\": null, \"validate_parameters\": null, \"predictor\": null, \"enable_categorical\": false, \"feature_types\": null, \"max_cat_to_onehot\": null, \"max_cat_threshold\": null, \"eval_metric\": \"mlogloss\", \"early_stopping_rounds\": 30, \"callbacks\": null, \"kwargs\": {\"num_class\": 6}, \"classes_\": [0, 1, 2, 3, 4, 5], \"n_classes_\": 6, \"evals_result_\": {\"validation_0\": {\"mlogloss\": [1.7744361288252666, 1.7599186120683024, 1.7452289740171085, 1.7310212168543477, 1.7130027500577134, 1.7028839652593735, 1.6929652145792284, 1.6819596028541048, 1.6674921605177613, 1.6573429200743988, 1.6473116449834821, 1.6359879644041857, 1.6255753797760835, 1.617285738271794, 1.6044564532205141, 1.593777556049811, 1.5853129861674558, 1.576741390092341, 1.566922119796663, 1.562495985534062, 1.5545040072183858, 1.5455388824987466, 1.5412179075152035, 1.5345252630293356, 1.527654038371995, 1.5212677097599074, 1.5158387539742453, 1.5120898646788554, 1.5058611380421314, 1.500091471476026, 1.491440993000115, 1.4859221047489737, 1.479093351117182, 1.4744463807930728, 1.4660542280702331, 1.4608049102056528, 1.4530478806316336, 1.4450846098297108, 1.4411382095629934, 1.4332145324655396, 1.4278262740015921, 1.423053616341558, 1.417239518315894, 1.413635904320772, 1.4083351674386106, 1.4064182255331144, 1.4001108790121433, 1.3973927747432502, 1.3923656619843559, 1.3906979336554908, 1.385973639110855, 1.3813866958248158, 1.3785555685771353, 1.3760598759735134, 1.3702842277553715, 1.365268941939404, 1.360649304923791, 1.3561326932167874, 1.3525222700507205, 1.350849471446564, 1.3477042188167052, 1.3439115921881095, 1.3404056513848124, 1.3364350153108562, 1.3338248201479213, 1.330162318064025, 1.325482100183854, 1.3240481305992324, 1.3204198678329222, 1.3182798327862666, 1.3129936169109935, 1.3105027743442779, 1.3067398687024172, 1.3048112712949576, 1.3039331939496934, 1.3003095819172594, 1.2984414801389401, 1.2953556505456596, 1.293274882092793, 1.2912977650107307, 1.2888613970145328, 1.2861819284684302, 1.2828777759487913, 1.2812966115886824, 1.2775358607944183, 1.274387499584444, 1.2708648035702181, 1.2684569014289695, 1.2666825869184541, 1.2638205773635987, 1.2620551564500566, 1.2606044743789293, 1.2594390499499395, 1.2592862313152045, 1.2571283951823742, 1.2546961383835449, 1.2544591230565074, 1.2537733994741382, 1.251736068255182, 1.2499800173489128, 1.2472468903424994, 1.2456433306043677, 1.2435235212936915, 1.2423643085631142, 1.2406581299804678, 1.2380462652278008, 1.2346593759512994, 1.2323743119100918, 1.230461473625267, 1.2307291944925154, 1.2286523150874809, 1.2259569141927453, 1.2258249191060666, 1.2230948110981792, 1.224444362772284, 1.2225014281777284, 1.2214035832113719, 1.2203881646580341, 1.2181214388723973, 1.2163024009715027, 1.2150167251521047, 1.2136199090904034, 1.2111170460499907, 1.2091057339803264, 1.2087078477890616, 1.2077866841244707, 1.2083501194994193, 1.2074582818486317, 1.206960647454603, 1.20733272249195, 1.205235324420884, 1.204199548766578, 1.2036240359471848, 1.2023689014835897, 1.2014726821444346, 1.2008763146116332, 1.1984039185958408, 1.1992158388990743, 1.19821013797886, 1.1965009480325923, 1.1943661727708195, 1.193583467983847, 1.1920043873027681, 1.1911854459333024, 1.1903531409289687, 1.1903019398069146, 1.1869435009118259, 1.1861046345265585, 1.1854725884238533, 1.1823549623526852, 1.1802677833785895, 1.179872764069831, 1.179724804232255, 1.1784568329713279, 1.178365590455135, 1.1781614170883292, 1.177175550074376, 1.1764186879219645, 1.1765702093068204, 1.1749568820273473, 1.1760753017525174, 1.1750892952827103, 1.173560021980057, 1.173440009085837, 1.173013080744978, 1.1722114523734755, 1.1732978228079107, 1.1722954079429693, 1.1717580979414426, 1.1711629723418402, 1.1703674361368939, 1.1689230260721661, 1.1694662987160773, 1.1700309265040576, 1.1694978287047426, 1.169240031419022, 1.1699444766756733, 1.170425615295167, 1.169666306973094, 1.1692067331010296, 1.1691515839813353, 1.1686702303524443, 1.1675317407277543, 1.1672961933736645, 1.167151741161247, 1.1664434939184471, 1.164764873900668, 1.1635008103164493, 1.1619486620822599, 1.1621762304611987, 1.16289372320266, 1.1620458345475349, 1.1608894244382062, 1.161048825920375, 1.1612965433782294, 1.1596321759160328, 1.1587553586065502, 1.1583592862096463, 1.1587670081228258, 1.1580031379572504, 1.1573045123388883, 1.1572294187693093, 1.1570554731160285, 1.1561449661633016, 1.1551600370105788, 1.153749458848618, 1.1523806670567245, 1.1526900589288822, 1.1509764719031716, 1.151256461701091, 1.1512222715641274, 1.150648217630011, 1.1498794842168156, 1.148643850934792, 1.1467603071564492, 1.1470062846127043, 1.14717305485729, 1.147152885905309, 1.146022605527701, 1.1436107950670342, 1.143573756911697, 1.1431923608827783, 1.143012212541146, 1.1427143606651249, 1.1423257271005347, 1.142501558880896, 1.1425368686688901, 1.142554493422233, 1.141997499534989, 1.1427270049551712, 1.1431477850003122, 1.1435316949113794, 1.1427527610082624, 1.1421575450436925, 1.1428362968350394, 1.142124113954026, 1.1409034410982222, 1.1403968659517394, 1.140788598581918, 1.140548384089093, 1.1400737310884117, 1.1399871451850687, 1.1394579214305611, 1.1387654438217296, 1.1382888751172004, 1.1378663439309693, 1.1366772804178495, 1.1366763840465544, 1.1366075762252335, 1.1363062070033747, 1.1361001124818164, 1.136347642359421, 1.1360825451224397, 1.1355901197319604, 1.135489735297638, 1.1349387758567788, 1.135420683654128, 1.1357953416903697, 1.1361469539410392, 1.1356254186909043, 1.1354000411270455, 1.1352027641868936, 1.135354251805243, 1.1346718155017204, 1.1347257739631014, 1.1344160939205803, 1.1342972336787092, 1.133926996300864, 1.1337004942571642, 1.1330298756694412, 1.1322338153336147, 1.1314355625710837, 1.1313087791691447, 1.1309967277683577, 1.1309472007798713, 1.1308861914754018, 1.1302856139571305, 1.1298992247792834, 1.1294747749254643, 1.1293730077135942, 1.1291776883807423, 1.1293326058491144, 1.1296868067836268, 1.1297390568853356, 1.1302834014463579, 1.1301435936862396, 1.1293240692275972, 1.1290096125734959, 1.128326366796652, 1.1278673315249221, 1.1273071192051551, 1.1270532596046177, 1.128098399033126, 1.127981639844059, 1.127987106625084, 1.1276371155111196, 1.127719768166401, 1.1275853606292734, 1.1278516960632496, 1.1275486172496565, 1.1275920156178267, 1.1274890561942263, 1.127799773481495, 1.1281834231643015, 1.1279333423517346, 1.1273893941945825, 1.1275995049210328, 1.1283060223885921, 1.1284250627771095, 1.1281565920836276, 1.1288048097381342, 1.1286154532586699, 1.1281499610451013, 1.1274787191406446, 1.1276507602926267, 1.1285854205990158, 1.1280678362884333, 1.1285638076677698, 1.1284748425372126, 1.1279097991150064, 1.1278769893763527, 1.1274573246724502]}}, \"_estimator_type\": \"classifier\"}"},"feature_names":[],"feature_types":[],"gradient_booster":{"model":{"gbtree_model_param":{"num_parallel_tree":"1","num_trees":"1932","size_leaf_vector":"0"},"tree_info":[0,1,2,3,4,5,0,1,2,3,4,5,0,1,2,3,4,5,0,1,2,3,4,5,0,1,2,3,4,5,0,1,2,3,4,5,0,1,2,3,4,5,0,1,2,3,4,5,0,1,2,3,4,5,0,1,2,3,4,5,0,1,2,3,4,5,0,1,2,3,4,5,0,1,2,3,4,5,0,1,2,3,4,5,0,1,2,3,4,5,0,1,2,3,4,5,0,1,2,3,4,5,0,1,2,3,4,5,0,1,2,3,4,5,0,1,2,3,4,5,0,1,2,3,4,5,0,1,2,3,4,5,0,1,2,3,4,5,0,1,2,3,4,5,0,1,2,3,4,5,0,1,2,3,4,5,0,1,2,3,4,5,0,1,2,3,4,5,0,1,2,3,4,5,0,1,2,3,4,5,0,1,2,3,4,5,0,1,2,3,4,5,0,1,2,3,4,5,0,1,2,3,4,5,0,1,2,3,4,5,0,1,2,3,4,5,0,1,2,3,4,5,0,1,2,3,4,5,0,1,2,3,4,5,0,1,2,3,4,5,0,1,2,3,4,5,0,1,2,3,4,5,0,1,2,3,4,5,0,1,2,3,4,5,0,1,2,3,4,5,0,1,2,3,4,5,0,1,2,3,4,5,0,1,2,3,4,5,0,1,2,3,4,5,0,1,2,3,4,5,0,1,2,3,4,5,0,1,2,3,4,5,0,1,2,3,4,5,0,1,2,3,4,5,0,1,2,3,4,5,0,1,2,3,4,5,0,1,2,3,4,5,0,1,2,3,4,5,0,1,2,3,4,5,0,1,2,3,4,5,0,1,2,3,4,5,0,1,2,3,4,5,0,1,2,3,4,5,0,1,2,3,4,5,0,1,2,3,4,5,0,1,2,3,4,5,0,1,2,3,4,5,0,1,2,3,4,5,0,1,2,3,4,5,0,1,2,3,4,5,0,1,2,3,4,5,0,1,2,3,4,5,0,1,2,3,4,5,0,1,2,3,4,5,0,1,2,3,4,5,0,1,2,3,4,5,0,1,2,3,4,5,0,1,2,3,4,5,0,1,2,3,4,5,0,1,2,3,4,5,0,1,2,3,4,5,0,1,2,3,4,5,0,1,2,3,4,5,0,1,2,3,4,5,0,1,2,3,4,5,0,1,2,3,4,5,0,1,2,3,4,5,0,1,2,3,4,5,0,1,2,3,4,5,0,1,2,3,4,5,0,1,2,3,4,5,0,1,2,3,4,5,0,1,2,3,4,5,0,1,2,3,4,5,0,1,2,3,4,5,0,1,2,3,4,5,0,1,2,3,4,5,0,1,2,3,4,5,0,1,2,3,4,5,0,1,2,3,4,5,0,1,2,3,4,5,0,1,2,3,4,5,0,1,2,3,4,5,0,1,2,3,4,5,0,1,2,3,4,5,0,1,2,3,4,5,0,1,2,3,4,5,0,1,2,3,4,5,0,1,2,3,4,5,0,1,2,3,4,5,0,1,2,3,4,5,0,1,2,3,4,5,0,1,2,3,4,5,0,1,2,3,4,5,0,1,2,3,4,5,0,1,2,3,4,5,0,1,2,3,4,5,0,1,2,3,4,5,0,1,2,3,4,5,0,1,2,3,4,5,0,1,2,3,4,5,0,1,2,3,4,5,0,1,2,3,4,5,0,1,2,3,4,5,0,1,2,3,4,5,0,1,2,3,4,5,0,1,2,3,4,5,0,1,2,3,4,5,0,1,2,3,4,5,0,1,2,3,4,5,0,1,2,3,4,5,0,1,2,3,4,5,0,1,2,3,4,5,0,1,2,3,4,5,0,1,2,3,4,5,0,1,2,3,4,5,0,1,2,3,4,5,0,1,2,3,4,5,0,1,2,3,4,5,0,1,2,3,4,5,0,1,2,3,4,5,0,1,2,3,4,5,0,1,2,3,4,5,0,1,2,3,4,5,0,1,2,3,4,5,0,1,2,3,4,5,0,1,2,3,4,5,0,1,2,3,4,5,0,1,2,3,4,5,0,1,2,3,4,5,0,1,2,3,4,5,0,1,2,3,4,5,0,1,2,3,4,5,0,1,2,3,4,5,0,1,2,3,4,5,0,1,2,3,4,5,0,1,2,3,4,5,0,1,2,3,4,5,0,1,2,3,4,5,0,1,2,3,4,5,0,1,2,3,4,5,0,1,2,3,4,5,0,1,2,3,4,5,0,1,2,3,4,5,0,1,2,3,4,5,0,1,2,3,4,5,0,1,2,3,4,5,0,1,2,3,4,5,0,1,2,3,4,5,0,1,2,3,4,5,0,1,2,3,4,5,0,1,2,3,4,5,0,1,2,3,4,5,0,1,2,3,4,5,0,1,2,3,4,5,0,1,2,3,4,5,0,1,2,3,4,5,0,1,2,3,4,5,0,1,2,3,4,5,0,1,2,3,4,5,0,1,2,3,4,5,0,1,2,3,4,5,0,1,2,3,4,5,0,1,2,3,4,5,0,1,2,3,4,5,0,1,2,3,4,5,0,1,2,3,4,5,0,1,2,3,4,5,0,1,2,3,4,5,0,1,2,3,4,5,0,1,2,3,4,5,0,1,2,3,4,5,0,1,2,3,4,5,0,1,2,3,4,5,0,1,2,3,4,5,0,1,2,3,4,5,0,1,2,3,4,5,0,1,2,3,4,5,0,1,2,3,4,5,0,1,2,3,4,5,0,1,2,3,4,5,0,1,2,3,4,5,0,1,2,3,4,5,0,1,2,3,4,5,0,1,2,3,4,5,0,1,2,3,4,5,0,1,2,3,4,5,0,1,2,3,4,5,0,1,2,3,4,5,0,1,2,3,4,5,0,1,2,3,4,5,0,1,2,3,4,5,0,1,2,3,4,5,0,1,2,3,4,5,0,1,2,3,4,5,0,1,2,3,4,5,0,1,2,3,4,5,0,1,2,3,4,5,0,1,2,3,4,5,0,1,2,3,4,5,0,1,2,3,4,5,0,1,2,3,4,5,0,1,2,3,4,5,0,1,2,3,4,5,0,1,2,3,4,5,0,1,2,3,4,5,0,1,2,3,4,5,0,1,2,3,4,5,0,1,2,3,4,5,0,1,2,3,4,5,0,1,2,3,4,5,0,1,2,3,4,5,0,1,2,3,4,5,0,1,2,3,4,5,0,1,2,3,4,5,0,1,2,3,4,5,0,1,2,3,4,5,0,1,2,3,4,5,0,1,2,3,4,5,0,1,2,3,4,5,0,1,2,3,4,5,0,1,2,3,4,5,0,1,2,3,4,5,0,1,2,3,4,5,0,1,2,3,4,5,0,1,2,3,4,5,0,1,2,3,4,5,0,1,2,3,4,5,0,1,2,3,4,5,0,1,2,3,4,5,0,1,2,3,4,5,0,1,2,3,4,5,0,1,2,3,4,5,0,1,2,3,4,5,0,1,2,3,4,5,0,1,2,3,4,5,0,1,2,3,4,5,0,1,2,3,4,5,0,1,2,3,4,5,0,1,2,3,4,5,0,1,2,3,4,5,0,1,2,3,4,5,0,1,2,3,4,5,0,1,2,3,4,5,0,1,2,3,4,5,0,1,2,3,4,5,0,1,2,3,4,5,0,1,2,3,4,5,0,1,2,3,4,5,0,1,2,3,4,5,0,1,2,3,4,5,0,1,2,3,4,5,0,1,2,3,4,5,0,1,2,3,4,5,0,1,2,3,4,5,0,1,2,3,4,5,0,1,2,3,4,5,0,1,2,3,4,5,0,1,2,3,4,5,0,1,2,3,4,5,0,1,2,3,4,5,0,1,2,3,4,5,0,1,2,3,4,5,0,1,2,3,4,5,0,1,2,3,4,5,0,1,2,3,4,5,0,1,2,3,4,5,0,1,2,3,4,5,0,1,2,3,4,5,0,1,2,3,4,5,0,1,2,3,4,5,0,1,2,3,4,5,0,1,2,3,4,5,0,1,2,3,4,5,0,1,2,3,4,5,0,1,2,3,4,5,0,1,2,3,4,5,0,1,2,3,4,5,0,1,2,3,4,5,0,1,2,3,4,5,0,1,2,3,4,5,0,1,2,3,4,5,0,1,2,3,4,5,0,1,2,3,4,5,0,1,2,3,4,5,0,1,2,3,4,5,0,1,2,3,4,5,0,1,2,3,4,5,0,1,2,3,4,5,0,1,2,3,4,5,0,1,2,3,4,5,0,1,2,3,4,5,0,1,2,3,4,5,0,1,2,3,4,5,0,1,2,3,4,5,0,1,2,3,4,5,0,1,2,3,4,5,0,1,2,3,4,5,0,1,2,3,4,5,0,1,2,3,4,5,0,1,2,3,4,5,0,1,2,3,4,5],"trees":[{"base_weights":[1.258625E-2,-1.7234613E-1,9.157704E-1,-2.3693892E-1,1.4904749E0,1.537057E-1,1.8156576E0,1.884207E0,-2.775227E-1,-2.2585932E-2,2.3612735E0,1.3057889E0,-3.51715E-1,1.7932276E-1,2.3305407E0,1.13088444E-1,9.645837E-3,1.2765807E0,-3.2770124E-1,3.4449425E-2,1.2616007E-1,2.1297219E0,-2.2411825E-2,5.687275E-2,-5.23518E-1,-2.48368E-2,8.7307274E-2,-1.8695196E-2,2.6041684E0,1.08604334E-1,-2.187521E-2,8.158592E-2,-3.5312834E-1,1.2384442E-1,8.219478E-3,9.990248E-3,-2.8496334E-2,7.904774E-3,1.3794178E-1,-2.0007126E-2,2.9095685E-2],"categories":[],"categories_nodes":[],"categories_segments":[],"categories_sizes":[],"default_left":[0,0,0,0,0,0,0,0,0,0,0,0,0,0,0,0,0,0,0,0,0,0,0,0,0,0,0,0,0,0,0,0,0,0,0,0,0,0,0,0,0],"id":0,"left_children":[1,3,5,7,9,11,13,15,17,-1,19,21,23,25,27,-1,-1,29,31,-1,-1,33,-1,-1,35,-1,-1,-1,37,-1,-1,-1,39,-1,-1,-1,-1,-1,-1,-1,-1],"loss_changes":[5.5000095E1,2.971583E1,3.8098225E1,2.3250841E1,1.8587374E1,1.8739565E1,2.1123817E1,2.8107948E0,2.0688745E1,0E0,2.4188232E-1,1.5096077E1,6.379818E0,8.497226E0,1.5304169E1,0E0,0E0,1.3743504E1,1.3161362E1,0E0,0E0,4.254013E0,0E0,0E0,8.173051E-1,0E0,0E0,0E0,6.26458E0,0E0,0E0,0E0,1.1231112E1,0E0,0E0,0E0,0E0,0E0,0E0,0E0,0E0],"parents":[2147483647,0,0,1,1,2,2,3,3,4,4,5,5,6,6,7,7,8,8,10,10,11,11,12,12,13,13,14,14,17,17,18,18,21,21,24,24,28,28,32,32],"right_children":[2,4,6,8,10,12,14,16,18,-1,20,22,24,26,28,-1,-1,30,32,-1,-1,34,-1,-1,36,-1,-1,-1,38,-1,-1,-1,40,-1,-1,-1,-1,-1,-1,-1,-1],"split_conditions":[1.3731388E-2,4.8974898E-2,8.147208E-3,-9.153455E-2,-4.2721428E-2,-6.0126998E-2,3.9546065E-2,1.8522264E-2,-5.1320914E-2,-2.2585932E-2,-1.4083649E-3,8.608027E-2,-2.7969636E-2,1.3110019E-2,7.196443E-3,1.13088444E-1,9.645837E-3,-1.26581695E-2,-7.294585E-2,3.4449425E-2,1.2616007E-1,4.5580797E-2,-2.2411825E-2,5.687275E-2,-5.402864E-2,-2.48368E-2,8.7307274E-2,-1.8695196E-2,2.957577E-2,1.08604334E-1,-2.187521E-2,8.158592E-2,6.1178032E-2,1.2384442E-1,8.219478E-3,9.990248E-3,-2.8496334E-2,7.904774E-3,1.3794178E-1,-2.0007126E-2,2.9095685E-2],"split_indices":[3263,18,2954,129,2576,2618,2432,6,4241,0,4,196,1202,751,205,0,0,3954,1225,0,0,35,0,0,92,0,0,0,2177,0,0,0,2565,0,0,0,0,0,0,0,0],"split_type":[0,0,0,0,0,0,0,0,0,0,0,0,0,0,0,0,0,0,0,0,0,0,0,0,0,0,0,0,0,0,0,0,0,0,0,0,0,0,0,0,0],"sum_hessian":[3.2734174E2,2.7237958E2,5.496217E1,2.6302E2,9.359584E0,3.0393988E1,2.4568184E1,4.0850263E0,2.5893497E2,3.0463617E0,6.3132224E0,8.785128E0,2.160886E1,6.202973E0,1.836521E1,3.0637698E0,1.0212566E0,7.334479E0,2.5160048E2,1.0212566E0,5.291966E0,5.831607E0,2.9535203E0,1.6537393E0,1.9955122E1,4.8103504E0,1.3926226E0,1.6537393E0,1.6711472E1,4.642075E0,2.6924036E0,2.4138792E0,2.491866E2,4.7349167E0,1.0966903E0,1.0038488E0,1.8951273E1,1.1140981E0,1.5597373E1,2.3780191E2,1.1384689E1],"tree_param":{"num_deleted":"0","num_feature":"8964","num_nodes":"41","size_leaf_vector":"0"}},{"base_weights":[1.6872639E-2,-1.8226478E-1,1.4689898E0,-2.703459E-1,1.8840356E0,2.2332816E0,-3.9497754E-1,1.2225971E-1,-3.412271E-1,-2.1665653E-2,1.2864809E-1,-2.2617692E-2,2.5769198E0,3.344562E-2,-2.7368015E-2,-4.5097506E-1,9.3740624E-1,-1.580955E-2,2.7234998E0,-5.030086E-1,1.7012484E0,2.2207608E0,-1.0618112E-1,2.3525862E-2,1.4194499E-1,8.2644016E-2,-2.6689932E-2,1.18602745E-1,-1.7461456E-2,-1.6955279E-2,1.3246635E-1,-2.7368015E-2,9.2724554E-2],"categories":[],"categories_nodes":[],"categories_segments":[],"categories_sizes":[],"default_left":[0,0,0,0,0,0,0,0,0,0,0,0,0,0,0,0,0,0,0,0,0,0,0,0,0,0,0,0,0,0,0,0,0],"id":1,"left_children":[1,3,5,7,9,11,13,-1,15,-1,-1,-1,17,-1,-1,19,21,-1,23,25,27,29,31,-1,-1,-1,-1,-1,-1,-1,-1,-1,-1],"loss_changes":[9.525992E1,5.324841E1,5.7477074E1,5.449786E1,2.0229115E1,2.7305893E1,2.3767455E0,0E0,3.8673836E1,0E0,0E0,0E0,1.1573502E1,0E0,0E0,2.9044498E1,2.9528725E1,0E0,4.9421997E0,1.7247776E1,9.315216E0,1.1709774E1,1.2275031E1,0E0,0E0,0E0,0E0,0E0,0E0,0E0,0E0,0E0,0E0],"parents":[2147483647,0,0,1,1,2,2,3,3,4,4,5,5,6,6,8,8,12,12,15,15,16,16,18,18,19,19,20,20,21,21,22,22],"right_children":[2,4,6,8,10,12,14,-1,16,-1,-1,-1,18,-1,-1,20,22,-1,24,26,28,30,32,-1,-1,-1,-1,-1,-1,-1,-1,-1,-1],"split_conditions":[1.6957493E-2,7.02938E-2,1.7800331E-2,-8.626534E-2,2.9493999E-2,-2.4653086E-3,-3.456937E-2,1.2225971E-1,2.141164E-2,-2.1665653E-2,1.2864809E-1,-2.2617692E-2,6.3443384E-3,3.344562E-2,-2.7368015E-2,1.9987192E-2,-2.2736726E-2,-1.580955E-2,8.035473E-3,-8.567286E-2,-4.0014517E-2,6.0565127E-3,5.2365623E-2,2.3525862E-2,1.4194499E-1,8.2644016E-2,-2.6689932E-2,1.18602745E-1,-1.7461456E-2,-1.6955279E-2,1.3246635E-1,-2.7368015E-2,9.2724554E-2],"split_indices":[858,1280,46,2609,1408,3775,18,0,134,0,0,0,3621,0,0,902,8036,0,8845,2737,3644,4370,7128,0,0,0,0,0,0,0,0,0,0],"split_type":[0,0,0,0,0,0,0,0,0,0,0,0,0,0,0,0,0,0,0,0,0,0,0,0,0,0,0,0,0,0,0,0,0],"sum_hessian":[3.274984E2,2.8877188E2,3.8726513E1,2.777992E2,1.0972706E1,2.7324415E1,1.1402098E1,6.2145786E0,2.7158463E2,2.5995622E0,8.373143E0,3.0637698E0,2.4260647E1,1.0038488E0,1.0398249E1,2.5071268E2,2.0871931E1,1.1140981E0,2.3146547E1,2.4554257E2,5.1701117E0,8.854758E0,1.2017172E1,1.3752148E0,2.1771334E1,2.715614E0,2.4282695E2,3.7774887E0,1.3926226E0,1.2997811E0,7.5549774E0,1.0398249E1,1.6189238E0],"tree_param":{"num_deleted":"0","num_feature":"8964","num_nodes":"33","size_leaf_vector":"0"}},{"base_weights":[-1.394197E-2,-1.9203195E-1,8.9015156E-1,1.5410428E0,-2.4529067E-1,1.6042655E0,1.9900401E-1,1.1671881E-1,-2.0706883E-2,1.5129032E0,-2.848366E-1,1.9246451E0,-2.30634E-2,-4.3279487E-1,8.9911413E-1,1.1545604E-1,-1.862055E-2,-3.1265268E-1,8.388305E-2,2.2488854E0,4.8495103E-3,3.4449425E-2,-2.7939653E-2,1.5309485E0,-2.4100324E-2,1.139786E0,-3.4326062E-1,2.5571413E0,-1.03534445E-1,-2.06565E-2,3.2130692E-2,-2.0919079E-2,2.1953342E0,1.0722498E-1,-2.008299E-2,-1.84306E-2,7.31688E-2,1.3773598E-1,-1.5157747E-2,9.645837E-3,-1.6406514E-2,8.219478E-3,1.2616007E-1],"categories":[],"categories_nodes":[],"categories_segments":[],"categories_sizes":[],"default_left":[0,0,0,0,0,0,0,0,0,0,0,0,0,0,0,0,0,0,0,0,0,0,0,0,0,0,0,0,0,0,0,0,0,0,0,0,0,0,0,0,0,0,0],"id":2,"left_children":[1,3,5,7,9,11,13,-1,-1,15,17,19,-1,21,23,-1,-1,25,-1,27,29,-1,-1,31,-1,33,35,37,39,-1,-1,-1,41,-1,-1,-1,-1,-1,-1,-1,-1,-1,-1],"loss_changes":[5.2400063E1,2.5467766E1,2.6115665E1,1.3750441E1,1.8827225E1,1.8226189E1,1.2933237E1,0E0,0E0,9.834577E0,1.469606E1,1.4228706E1,0E0,2.5873916E0,1.2760555E1,0E0,0E0,1.180842E1,0E0,1.4454643E1,1.413738E0,0E0,0E0,1.3471033E1,0E0,9.428562E0,1.2094358E1,1.0634575E1,2.7824068E-1,0E0,0E0,0E0,4.505165E0,0E0,0E0,0E0,0E0,0E0,0E0,0E0,0E0,0E0,0E0],"parents":[2147483647,0,0,1,1,2,2,3,3,4,4,5,5,6,6,9,9,10,10,11,11,13,13,14,14,17,17,19,19,20,20,23,23,25,25,26,26,27,27,28,28,32,32],"right_children":[2,4,6,8,10,12,14,-1,-1,16,18,20,-1,22,24,-1,-1,26,-1,28,30,-1,-1,32,-1,34,36,38,40,-1,-1,-1,42,-1,-1,-1,-1,-1,-1,-1,-1,-1,-1],"split_conditions":[1.8008895E-2,-1.6996013E-2,1.0842541E-2,7.99954E-3,-7.3804125E-2,-2.1919496E-2,2.7347826E-3,1.1671881E-1,-2.0706883E-2,-4.48068E-2,7.184302E-2,1.3724635E-2,-2.30634E-2,7.820944E-3,1.2026427E-2,1.1545604E-1,-1.862055E-2,-3.2495778E-2,8.388305E-2,3.4520015E-2,-1.086893E-3,3.4449425E-2,-2.7939653E-2,-5.2552406E-2,-2.4100324E-2,2.8959889E-2,8.810316E-2,1.7250289E-1,-5.213235E-3,-2.06565E-2,3.2130692E-2,-2.0919079E-2,6.626746E-3,1.0722498E-1,-2.008299E-2,-1.84306E-2,7.31688E-2,1.3773598E-1,-1.5157747E-2,9.645837E-3,-1.6406514E-2,8.219478E-3,1.2616007E-1],"split_indices":[4004,118,834,408,85,4288,7762,0,0,294,1098,1009,0,717,784,0,0,1528,0,7926,41,0,0,2775,0,8155,1968,6897,4,0,0,0,593,0,0,0,0,0,0,0,0,0,0],"split_type":[0,0,0,0,0,0,0,0,0,0,0,0,0,0,0,0,0,0,0,0,0,0,0,0,0,0,0,0,0,0,0,0,0,0,0,0,0,0,0,0,0,0,0],"sum_hessian":[3.2338437E2,2.7082446E2,5.25599E1,7.241637E0,2.6358282E2,2.5200666E1,2.7359232E1,5.013441E0,2.2281961E0,4.978626E0,2.5860422E2,2.187578E1,3.3248863E0,1.4581919E1,1.2777312E1,3.3422942E0,1.6363316E0,2.5581897E2,2.7852452E0,1.85683E1,3.3074787E0,1.0212566E0,1.3560662E1,8.692286E0,4.0850263E0,4.531826E0,2.5128714E2,1.6340105E1,2.2281961E0,2.2107882E0,1.0966903E0,2.3036299E0,6.388656E0,2.5067205E0,2.0251052E0,2.4859473E2,2.6924036E0,1.5318849E1,1.0212566E0,1.0212566E0,1.2069396E0,1.0966903E0,5.291966E0],"tree_param":{"num_deleted":"0","num_feature":"8964","num_nodes":"43","size_leaf_vector":"0"}},{"base_weights":[2.8630204E-3,-5.5751484E-2,1.6703476E0,-3.503881E-1,3.1242844E-1,-2.244509E-2,1.2398205E-1,1.5681996E0,-4.609461E-1,1.757769E0,5.7035413E-2,1.1996751E-1,-2.2037873E-2,1.5355297E0,-5.35508E-1,-2.4100324E-2,2.31026E0,1.12790845E-1,-5.1882315E-2,1.1753821E-1,-1.914612E-2,9.1544217E-1,-5.593443E-1,2.650951E0,-8.883351E-2,1.5324053E0,-2.2169574E-1,5.9253007E-2,9.645837E-3,5.9253007E-2,-2.8884431E-2,1.3935463E-1,2.9026909E-2,-1.580955E-2,9.645837E-3,-2.1625152E-2,1.0726347E-1,6.554058E-2,-1.8986875E-2],"categories":[],"categories_nodes":[],"categories_segments":[],"categories_sizes":[],"default_left":[0,0,0,0,0,0,0,0,0,0,0,0,0,0,0,0,0,0,0,0,0,0,0,0,0,0,0,0,0,0,0,0,0,0,0,0,0,0,0],"id":3,"left_children":[1,3,5,7,9,-1,-1,11,13,15,17,-1,-1,19,21,-1,23,-1,25,-1,-1,27,29,31,33,35,37,-1,-1,-1,-1,-1,-1,-1,-1,-1,-1,-1,-1],"loss_changes":[3.2539875E1,3.500387E1,2.0502958E1,3.8723564E1,5.2876343E1,0E0,0E0,1.7735321E1,2.6152912E1,2.7741112E1,2.957374E1,0E0,0E0,1.0885923E1,6.210964E0,0E0,1.4484291E1,0E0,3.213187E1,0E0,0E0,3.6408138E-1,5.8921356E0,2.6939087E0,2.618432E-1,1.4856497E1,2.6559778E1,0E0,0E0,0E0,0E0,0E0,0E0,0E0,0E0,0E0,0E0,0E0,0E0],"parents":[2147483647,0,0,1,1,2,2,3,3,4,4,7,7,8,8,9,9,10,10,13,13,14,14,16,16,18,18,21,21,22,22,23,23,24,24,25,25,26,26],"right_children":[2,4,6,8,10,-1,-1,12,14,16,18,-1,-1,20,22,-1,24,-1,26,-1,-1,28,30,32,34,36,38,-1,-1,-1,-1,-1,-1,-1,-1,-1,-1,-1,-1],"split_conditions":[3.7367295E-2,1.684486E-2,5.9845384E-2,-3.5362296E-2,-6.979775E-2,-2.244509E-2,1.2398205E-1,-6.116456E-3,-6.9865055E-2,-1.4616819E-2,-8.49421E-2,1.1996751E-1,-2.2037873E-2,-1.2390814E-2,-7.410426E-2,-2.4100324E-2,5.522128E-2,1.12790845E-1,-5.0833374E-2,1.1753821E-1,-1.914612E-2,-3.284671E-2,-6.2293224E-2,1.2594703E-2,-9.19757E-2,-2.0851849E-2,-1.1559608E-1,5.9253007E-2,9.645837E-3,5.9253007E-2,-2.8884431E-2,1.3935463E-1,2.9026909E-2,-1.580955E-2,9.645837E-3,-2.1625152E-2,1.0726347E-1,6.554058E-2,-1.8986875E-2],"split_indices":[1877,166,1161,488,0,0,0,1803,456,371,207,0,0,3,1813,0,1071,0,1540,0,0,27,2596,8462,0,443,1812,0,0,0,0,0,0,0,0,0,0,0,0],"split_type":[0,0,0,0,0,0,0,0,0,0,0,0,0,0,0,0,0,0,0,0,0,0,0,0,0,0,0,0,0,0,0,0,0,0,0,0,0,0,0],"sum_hessian":[3.3097415E2,3.2066876E2,1.0305407E1,1.7815125E2,1.4251752E2,2.970928E0,7.334479E0,8.988218E0,1.6916302E2,2.0517973E1,1.2199954E2,6.220381E0,2.7678373E0,5.384807E0,1.6377821E2,4.085026E0,1.6432947E1,4.8277583E0,1.1717178E2,3.6208186E0,1.7639885E0,2.0425131E0,1.617357E2,1.4297592E1,2.1353545E0,1.0566524E1,1.06605255E2,1.0212566E0,1.0212566E0,1.0212566E0,1.6071445E2,1.3090652E1,1.2069396E0,1.114098E0,1.0212564E0,2.5821543E0,7.9843693E0,9.28415E0,9.7321106E1],"tree_param":{"num_deleted":"0","num_feature":"8964","num_nodes":"39","size_leaf_vector":"0"}},{"base_weights":[7.011525E-3,-1.8548246E-1,5.6383693E-1,-3.5324362E-1,2.4421519E-1,9.372935E-1,-2.5010884E-1,-3.8494822E-1,8.579493E-2,1.6835872E0,8.574281E-2,1.7828523E0,4.1052437E-1,6.960937E-2,-4.5673874E-1,-4.1644737E-1,1.1918217E0,1.2103053E-1,-1.876887E-2,1.3932571E0,-1.3663884E-1,2.3796933E0,-3.9987907E-2,1.0368801E-1,1.9613491E0,-2.8753692E-2,5.5333424E-2,-4.4372687E-1,6.515365E-2,9.384434E-2,-1.5157747E-2,1.9827428E0,-2.0431703E-2,1.2497472E0,-3.423159E-1,-1.580955E-2,2.592819E0,-2.4466554E-2,5.9253007E-2,1.5313661E0,-1.8082812E-1,1.1938363E-1,6.310196E-3,6.635353E-2,-2.3306783E-2,-1.5157747E-2,1.20411456E-1,1.09491184E-1,-9.149426E-3,-2.293059E-2,7.2474085E-2,1.3715194E-1,2.6644006E-2,1.13088444E-1,-1.7461456E-2,-1.8678304E-2,5.3673893E-2],"categories":[],"categories_nodes":[],"categories_segments":[],"categories_sizes":[],"default_left":[0,0,0,0,0,0,0,0,0,0,0,0,0,0,0,0,0,0,0,0,0,0,0,0,0,0,0,0,0,0,0,0,0,0,0,0,0,0,0,0,0,0,0,0,0,0,0,0,0,0,0,0,0,0,0,0,0],"id":4,"left_children":[1,3,5,7,9,11,13,15,-1,17,19,21,23,-1,25,27,29,-1,-1,31,33,35,37,39,41,-1,-1,43,-1,-1,-1,45,-1,47,49,-1,51,-1,-1,53,55,-1,-1,-1,-1,-1,-1,-1,-1,-1,-1,-1,-1,-1,-1,-1,-1],"loss_changes":[3.544423E1,1.7802212E1,2.6055784E1,1.2282518E1,1.5731057E1,2.5298058E1,9.970044E0,9.203142E0,0E0,1.1302057E1,1.8726562E1,2.4174706E1,1.7549065E1,0E0,5.29583E0,8.675016E0,4.350586E0,0E0,0E0,1.0747776E1,1.6223148E1,1.0409386E1,4.126454E0,1.3356695E1,4.4760113E0,0E0,0E0,7.3907127E0,0E0,0E0,0E0,7.7527447E0,0E0,1.0328908E1,1.0879946E1,0E0,3.3582153E0,0E0,0E0,8.284733E0,7.1082306E0,0E0,0E0,0E0,0E0,0E0,0E0,0E0,0E0,0E0,0E0,0E0,0E0,0E0,0E0,0E0,0E0],"parents":[2147483647,0,0,1,1,2,2,3,3,4,4,5,5,6,6,7,7,9,9,10,10,11,11,12,12,14,14,15,15,16,16,19,19,20,20,21,21,22,22,23,23,24,24,27,27,31,31,33,33,34,34,36,36,39,39,40,40],"right_children":[2,4,6,8,10,12,14,16,-1,18,20,22,24,-1,26,28,30,-1,-1,32,34,36,38,40,42,-1,-1,44,-1,-1,-1,46,-1,48,50,-1,52,-1,-1,54,56,-1,-1,-1,-1,-1,-1,-1,-1,-1,-1,-1,-1,-1,-1,-1,-1],"split_conditions":[8.858258E-2,-3.2481097E-2,3.830087E-2,-8.442638E-3,-5.6023777E-2,1.2805558E-2,-6.023511E-2,1.07405744E-1,8.579493E-2,-6.4297644E-3,6.5083527E-3,5.0315224E-2,1.5153651E-2,6.960937E-2,6.315178E-2,6.4995505E-2,5.377996E-2,1.2103053E-1,-1.876887E-2,4.2396486E-2,5.0331205E-3,1.5986629E-2,1.173363E-2,-8.67779E-2,3.1299427E-2,-2.8753692E-2,5.5333424E-2,-7.119394E-2,6.515365E-2,9.384434E-2,-1.5157747E-2,-1.3844485E-2,-2.0431703E-2,1.6292153E-2,1.0444408E-1,-1.580955E-2,5.3152177E-2,-2.4466554E-2,5.9253007E-2,-3.7166476E-3,3.4044743E-2,1.1938363E-1,6.310196E-3,6.635353E-2,-2.3306783E-2,-1.5157747E-2,1.20411456E-1,1.09491184E-1,-9.149426E-3,-2.293059E-2,7.2474085E-2,1.3715194E-1,2.6644006E-2,1.13088444E-1,-1.7461456E-2,-1.8678304E-2,5.3673893E-2],"split_indices":[3875,8170,1143,7969,16,1120,3928,317,0,2664,3438,1045,899,0,1491,2735,10,0,0,3656,3024,4315,3548,1807,8,0,0,3066,0,0,0,4146,0,4608,209,0,198,0,0,1632,2755,0,0,0,0,0,0,0,0,0,0,0,0,0,0,0,0],"split_type":[0,0,0,0,0,0,0,0,0,0,0,0,0,0,0,0,0,0,0,0,0,0,0,0,0,0,0,0,0,0,0,0,0,0,0,0,0,0,0,0,0,0,0,0,0,0,0,0,0,0,0,0,0,0,0,0,0],"sum_hessian":[3.2870535E2,2.4475922E2,8.394613E1,1.7616095E2,6.859827E1,5.743988E1,2.650625E1,1.7430412E2,1.8568301E0,5.8490148E0,6.2749252E1,2.1133047E1,3.630683E1,2.3210375E0,2.4185211E1,1.7161172E2,2.6924036E0,4.177868E0,1.671147E0,8.355736E0,5.4393517E1,1.5690214E1,5.4428334E0,3.1200548E1,5.1062827E0,2.3071114E1,1.1140981E0,1.6966205E2,1.9496716E0,1.6711471E0,1.0212564E0,6.220381E0,2.1353545E0,6.3712482E0,4.8022266E1,1.1140981E0,1.4576117E1,4.4215765E0,1.0212566E0,4.4563923E0,2.6744156E1,3.8993433E0,1.2069396E0,1.3926226E0,1.6826942E2,1.0212566E0,5.1991243E0,3.5279772E0,2.843271E0,4.579407E1,2.2281961E0,1.3276336E1,1.2997811E0,3.0637698E0,1.3926226E0,2.3790636E1,2.9535203E0],"tree_param":{"num_deleted":"0","num_feature":"8964","num_nodes":"57","size_leaf_vector":"0"}},{"base_weights":[-7.654173E-3,5.810046E-1,-3.5219777E-1,2.1820344E-1,1.7354107E0,-4.0022236E-1,1.3704957E0,-5.636495E-2,1.3094777E0,-1.0957627E-1,2.305131E0,8.4776394E-2,-4.2135268E-1,-1.9089088E-1,1.1222545E-1,-1.796405E-1,1.7965058E0,-3.7517866E-1,1.8585435E0,-2.5608648E-2,5.931586E-2,4.388121E-2,2.6484015E0,-4.427473E-1,8.4776394E-2,-1.5691735E-2,1.6505619E-3,-3.7349212E-1,6.930578E-1,1.1222545E-1,1.377976E-3,1.377976E-3,-2.3507643E-2,2.1685069E0,-1.876887E-2,-1.9829376E-2,3.2130692E-2,1.3942118E-1,1.377976E-3,-4.7522476E-1,7.646837E-1,5.931586E-2,-2.1212367E-2,2.4596632E-3,9.690563E-2,1.24273434E-1,-5.40131E-3,-2.4852388E-2,4.731984E-2,8.973738E-2,-2.1444997E-2],"categories":[],"categories_nodes":[],"categories_segments":[],"categories_sizes":[],"default_left":[0,0,0,0,0,0,0,0,0,0,0,0,0,0,0,0,0,0,0,0,0,0,0,0,0,0,0,0,0,0,0,0,0,0,0,0,0,0,0,0,0,0,0,0,0,0,0,0,0,0,0],"id":5,"left_children":[1,3,5,7,9,11,13,15,17,19,21,-1,23,25,-1,27,29,31,33,-1,-1,35,37,39,-1,-1,-1,41,43,-1,-1,-1,-1,45,-1,-1,-1,-1,-1,47,49,-1,-1,-1,-1,-1,-1,-1,-1,-1,-1],"loss_changes":[6.930283E1,5.246047E1,1.8379475E1,2.9179024E1,3.1812202E1,1.0034233E1,8.714022E0,1.8268974E1,1.8797718E1,4.801489E0,1.7726013E1,0E0,1.0223343E1,9.570981E-2,0E0,1.287532E1,3.8944187E0,2.2876501E-1,1.1149422E1,0E0,0E0,1.3219714E0,7.2405396E0,8.514355E0,0E0,0E0,0E0,5.385762E0,1.1051529E1,0E0,0E0,0E0,0E0,9.833019E0,0E0,0E0,0E0,0E0,0E0,6.7691803E0,7.934806E0,0E0,0E0,0E0,0E0,0E0,0E0,0E0,0E0,0E0,0E0],"parents":[2147483647,0,0,1,1,2,2,3,3,4,4,5,5,6,6,7,7,8,8,9,9,10,10,12,12,13,13,15,15,16,16,17,17,18,18,21,21,22,22,23,23,27,27,28,28,33,33,39,39,40,40],"right_children":[2,4,6,8,10,12,14,16,18,20,22,-1,24,26,-1,28,30,32,34,-1,-1,36,38,40,-1,-1,-1,42,44,-1,-1,-1,-1,46,-1,-1,-1,-1,-1,48,50,-1,-1,-1,-1,-1,-1,-1,-1,-1,-1],"split_conditions":[9.958781E-3,-2.183112E-2,8.3253095E-3,7.1273446E-3,-4.1724224E-2,-1.2558046E-1,-4.5889862E-2,4.1081004E-2,-3.8798846E-2,-2.1500425E-2,-6.829809E-2,8.4776394E-2,1.3852501E-1,-4.6395045E-2,1.1222545E-1,-3.0814115E-2,4.599897E-2,-4.4806857E-2,5.9203386E-2,-2.5608648E-2,5.931586E-2,-1.071409E-2,1.432995E-2,-4.3259453E-2,8.4776394E-2,-1.5691735E-2,1.6505619E-3,-4.961241E-2,3.1777106E-2,1.1222545E-1,1.377976E-3,1.377976E-3,-2.3507643E-2,4.5625452E-2,-1.876887E-2,-1.9829376E-2,3.2130692E-2,1.3942118E-1,1.377976E-3,5.998477E-2,-5.202254E-3,5.931586E-2,-2.1212367E-2,2.4596632E-3,9.690563E-2,1.24273434E-1,-5.40131E-3,-2.4852388E-2,4.731984E-2,8.973738E-2,-2.1444997E-2],"split_indices":[664,7791,7455,3964,1797,150,33,307,339,175,2620,0,1263,0,0,4330,104,0,2980,0,0,23,793,6412,0,0,0,1083,4299,0,0,0,0,2375,0,0,0,0,0,2642,4054,0,0,0,0,0,0,0,0,0,0],"split_type":[0,0,0,0,0,0,0,0,0,0,0,0,0,0,0,0,0,0,0,0,0,0,0,0,0,0,0,0,0,0,0,0,0,0,0,0,0,0,0,0,0,0,0,0,0,0,0,0,0,0,0],"sum_hessian":[3.3968967E2,1.2516195E2,2.1452771E2,9.6137375E1,2.9024574E1,2.0945624E2,5.071467E0,7.756908E1,1.85683E1,7.0385466E0,2.1986027E1,1.299781E0,2.0815646E2,2.100539E0,2.970928E0,7.35769E1,3.9921844E0,4.642075E0,1.3926225E1,5.831607E0,1.2069395E0,3.046362E0,1.8939667E1,2.0685667E2,1.299781E0,1.0966903E0,1.0038488E0,6.0671925E1,1.2904969E1,2.970928E0,1.0212566E0,1.0212566E0,3.6208186E0,1.2255078E1,1.6711471E0,1.9496716E0,1.0966903E0,1.791841E1,1.0212566E0,2.0202892E2,4.8277583E0,1.2069395E0,5.9464985E1,9.191309E0,3.71366E0,1.0676772E1,1.5783056E0,1.9961504E2,2.4138792E0,2.3210375E0,2.5067205E0],"tree_param":{"num_deleted":"0","num_feature":"8964","num_nodes":"51","size_leaf_vector":"0"}},{"base_weights":[3.173301E-3,-1.7520775E-1,7.701048E-1,-3.6220327E-1,3.3879444E-1,-2.8652927E-1,1.4080974E0,-3.9398235E-1,1.0896237E0,1.3062278E0,-5.176693E-2,7.3152386E-2,-4.425315E-1,5.9021086E-1,2.138858E0,6.299078E-2,-4.1789064E-1,-1.7738843E-2,9.3815714E-2,1.8675733E0,-7.934895E-2,-2.7795857E-1,1.2907101E0,-2.849117E-2,3.5987593E-2,-4.2034462E-4,1.8124863E0,-1.8554034E-2,2.3786962E0,-4.4229272E-1,6.2828E-2,2.2306886E0,-1.9832714E-2,-2.477021E-2,5.5639107E-2,-4.204091E-1,1.4079418E0,-1.965963E-2,1.9154677E0,-4.5882934E-1,1.3497716E0,4.6790894E-3,1.11512005E-1,7.554391E-3,1.256865E-1,6.8953075E-2,-2.3121307E-2,2.386584E-3,1.2538451E-1,-2.4389511E-2,5.8268398E-2,9.407854E-3,8.978957E-2,9.163038E-3,1.1277194E-1,-2.7033493E-2,9.651393E-3,7.578369E-3,8.916523E-2],"categories":[],"categories_nodes":[],"categories_segments":[],"categories_sizes":[],"default_left":[0,0,0,0,0,0,0,0,0,0,0,0,0,0,0,0,0,0,0,0,0,0,0,0,0,0,0,0,0,0,0,0,0,0,0,0,0,0,0,0,0,0,0,0,0,0,0,0,0,0,0,0,0,0,0,0,0,0,0],"id":6,"left_children":[1,3,5,7,9,11,13,15,17,19,21,-1,23,25,27,-1,29,-1,-1,31,33,35,37,-1,-1,39,41,-1,43,45,-1,47,-1,-1,-1,49,51,-1,53,55,57,-1,-1,-1,-1,-1,-1,-1,-1,-1,-1,-1,-1,-1,-1,-1,-1,-1,-1],"loss_changes":[4.528671E1,2.5937359E1,4.251233E1,9.53763E0,2.733327E1,7.292812E0,2.2117035E1,8.194031E0,5.7724667E0,1.631985E1,1.626117E1,0E0,3.8310246E0,1.4322992E1,1.3089447E1,0E0,8.397198E0,0E0,0E0,1.3084106E1,4.0004334E0,1.1552951E1,8.883818E0,0E0,0E0,9.516913E0,4.432745E0,0E0,5.2283783E0,7.6010895E0,0E0,7.7037506E0,0E0,0E0,0E0,5.1475887E0,1.4532051E0,0E0,3.006647E0,7.167084E-1,1.7542176E0,0E0,0E0,0E0,0E0,0E0,0E0,0E0,0E0,0E0,0E0,0E0,0E0,0E0,0E0,0E0,0E0,0E0,0E0],"parents":[2147483647,0,0,1,1,2,2,3,3,4,4,5,5,6,6,7,7,8,8,9,9,10,10,12,12,13,13,14,14,16,16,19,19,20,20,21,21,22,22,25,25,26,26,28,28,29,29,31,31,35,35,36,36,38,38,39,39,40,40],"right_children":[2,4,6,8,10,12,14,16,18,20,22,-1,24,26,28,-1,30,-1,-1,32,34,36,38,-1,-1,40,42,-1,44,46,-1,48,-1,-1,-1,50,52,-1,54,56,58,-1,-1,-1,-1,-1,-1,-1,-1,-1,-1,-1,-1,-1,-1,-1,-1,-1,-1],"split_conditions":[1.4245734E-2,2.0773625E-3,-1.3608604E-2,7.120196E-2,-4.3828823E-2,-8.710598E-3,-1.6187059E-2,-3.3562016E-2,-7.495545E-2,1.5772686E-3,2.1382255E-2,7.3152386E-2,2.1354748E-2,7.636686E-2,2.8562915E-2,6.299078E-2,7.6929376E-2,-1.7738843E-2,9.3815714E-2,1.8507987E-2,4.4515226E-3,3.2458503E-2,-5.8400247E-2,-2.849117E-2,3.5987593E-2,1.3910036E-2,1.4806485E-2,-1.8554034E-2,-3.510912E-2,-1.13937385E-1,6.2828E-2,5.0955284E-2,-1.9832714E-2,-2.477021E-2,5.5639107E-2,3.877636E-2,-2.0272596E-2,-1.965963E-2,3.0465597E-2,1.754621E-2,-3.7343375E-2,4.6790894E-3,1.11512005E-1,7.554391E-3,1.256865E-1,6.8953075E-2,-2.3121307E-2,2.386584E-3,1.2538451E-1,-2.4389511E-2,5.8268398E-2,9.407854E-3,8.978957E-2,9.163038E-3,1.1277194E-1,-2.7033493E-2,9.651393E-3,7.578369E-3,8.916523E-2],"split_indices":[3429,7898,43,5,8081,5745,3711,3878,1,7607,1586,0,8710,6985,2259,0,1615,0,0,4827,4138,3938,8037,0,0,3580,4495,0,7839,1588,0,5675,0,0,0,8433,434,0,2446,3350,1,0,0,0,0,0,0,0,0,0,0,0,0,0,0,0,0,0,0],"split_type":[0,0,0,0,0,0,0,0,0,0,0,0,0,0,0,0,0,0,0,0,0,0,0,0,0,0,0,0,0,0,0,0,0,0,0,0,0,0,0,0,0,0,0,0,0,0,0,0,0,0,0,0,0,0,0,0,0,0,0],"sum_hessian":[3.2904227E2,2.6757773E2,6.1464516E1,1.9641624E2,7.116149E1,2.3347544E1,3.8116974E1,1.92922E2,3.4942448E0,1.9791876E1,5.1369614E1,1.2254665E0,2.2122076E1,1.883925E1,1.9277721E1,2.0125833E0,1.9090942E2,1.4256716E0,2.0685732E0,1.3837823E1,5.954052E0,4.4641068E1,6.728546E0,2.0397865E1,1.7242117E0,1.3375542E1,5.4637084E0,1.6336932E0,1.764403E1,1.8889252E2,2.0169077E0,1.1938114E1,1.899709E0,4.846912E0,1.1071403E0,4.185514E1,2.7859268E0,1.921147E0,4.8073993E0,1.0478216E1,2.8973258E0,1.3075651E0,4.156143E0,1.129523E0,1.6514505E1,1.3272558E0,1.8756526E2,1.4762887E0,1.0461825E1,4.0813343E1,1.0417999E0,1.0304129E0,1.7555139E0,1.0412271E0,3.7661722E0,9.460964E0,1.0172521E0,1.1283598E0,1.7689658E0],"tree_param":{"num_deleted":"0","num_feature":"8964","num_nodes":"59","size_leaf_vector":"0"}},{"base_weights":[1.9181155E-2,-1.3493665E-1,1.7165152E0,6.4090246E-1,-4.005763E-1,2.3624653E-1,2.4092178E0,-3.882695E-1,1.6563392E0,1.5681678E0,-4.5624304E-1,9.295687E-2,-2.5964458E-2,2.2289751E-2,1.2720019E-1,7.127923E-2,-5.3045434E-1,2.1264498E0,-2.6083201E-2,1.0779127E-1,-1.7453235E-2,-5.0618666E-1,1.4809746E0,3.2022085E-2,-2.9065719E-2,2.4199822E0,-2.2764638E-2,8.472604E-2,-5.321629E-1,1.0655586E-1,-1.7501777E-2,1.2828964E-1,-1.7256146E-2,-2.791799E-2,4.5118246E-2],"categories":[],"categories_nodes":[],"categories_segments":[],"categories_sizes":[],"default_left":[0,0,0,0,0,0,0,0,0,0,0,0,0,0,0,0,0,0,0,0,0,0,0,0,0,0,0,0,0,0,0,0,0,0,0],"id":7,"left_children":[1,3,5,7,9,11,13,15,17,19,21,-1,-1,-1,-1,-1,23,25,-1,-1,-1,27,29,-1,-1,31,-1,-1,33,-1,-1,-1,-1,-1,-1],"loss_changes":[8.7421555E1,6.342244E1,2.7955017E1,8.274093E1,2.5804977E1,1.3198232E1,3.852127E0,1.1027246E1,4.1791794E1,8.099012E0,2.2365108E1,0E0,0E0,0E0,0E0,0E0,2.6149683E0,2.601619E1,0E0,0E0,0E0,1.33949585E1,7.733444E0,0E0,0E0,1.2851227E1,0E0,0E0,8.649483E0,0E0,0E0,0E0,0E0,0E0,0E0],"parents":[2147483647,0,0,1,1,2,2,3,3,4,4,5,5,6,6,7,7,8,8,9,9,10,10,16,16,17,17,21,21,22,22,25,25,28,28],"right_children":[2,4,6,8,10,12,14,16,18,20,22,-1,-1,-1,-1,-1,24,26,-1,-1,-1,28,30,-1,-1,32,-1,-1,34,-1,-1,-1,-1,-1,-1],"split_conditions":[1.975178E-2,-3.0051174E-2,3.5323244E-2,1.6604196E-2,-1.0110573E-1,-9.008875E-2,-6.1559295E-3,6.3645784E-3,4.8252687E-2,6.724815E-2,9.733085E-2,9.295687E-2,-2.5964458E-2,2.2289751E-2,1.2720019E-1,7.127923E-2,-1.2866632E-2,6.78429E-3,-2.6083201E-2,1.0779127E-1,-1.7453235E-2,-3.1883564E-2,1.8937029E-2,3.2022085E-2,-2.9065719E-2,2.4845442E-2,-2.2764638E-2,8.472604E-2,1.734897E-2,1.0655586E-1,-1.7501777E-2,1.2828964E-1,-1.7256146E-2,-2.791799E-2,4.5118246E-2],"split_indices":[746,2014,7750,7855,1585,71,3671,7862,1494,42,1509,0,0,0,0,0,5588,2768,0,0,0,1298,11,0,0,193,0,0,8635,0,0,0,0,0,0],"split_type":[0,0,0,0,0,0,0,0,0,0,0,0,0,0,0,0,0,0,0,0,0,0,0,0,0,0,0,0,0,0,0,0,0,0,0],"sum_hessian":[3.3230835E2,3.0549036E2,2.6817999E1,7.7558075E1,2.2793228E2,8.976579E0,1.7841421E1,3.8825268E1,3.8732803E1,5.520496E0,2.2241179E2,2.3875127E0,6.5890665E0,1.4228103E0,1.641861E1,2.1660945E0,3.6659172E1,3.1876171E1,6.8566346E0,4.1301136E0,1.3903822E0,2.1754202E2,4.8697705E0,1.0435017E0,3.5615673E1,2.867824E1,3.1979315E0,1.7884796E0,2.1575354E2,3.4727778E0,1.3969926E0,2.731019E1,1.3680494E0,2.12484E2,3.2695432E0],"tree_param":{"num_deleted":"0","num_feature":"8964","num_nodes":"35","size_leaf_vector":"0"}},{"base_weights":[-1.5212271E-3,-2.6245376E-1,5.878619E-1,9.3775403E-1,-3.2729837E-1,1.1567326E0,9.227679E-2,-2.429503E-2,1.7925382E0,1.0396887E0,-3.6692843E-1,1.5382272E0,-1.262538E-1,-1.5668854E-1,1.6021558E0,2.186398E0,-1.5670916E-2,1.0294727E-1,-2.131778E-2,-4.0449917E-1,1.0236475E0,2.843198E-1,1.9881465E0,7.029088E-2,-2.6958121E-2,-3.8519752E-1,8.26237E-1,1.0871913E-1,-1.8656915E-2,3.2868635E-2,1.1797746E-1,7.653947E-2,-4.2701757E-1,-2.1163026E-2,1.07149445E-1,-3.8470265E-1,1.3656923E0,-2.087656E-2,2.2257285E0,-5.001522E-1,5.796463E-1,1.7403826E0,-2.8859088E-1,3.763957E-2,-2.3319362E-2,-2.5312692E-2,1.0058015E-2,-1.4970707E-2,9.753553E-2,-1.866859E-2,1.2147583E-1,3.6517035E-2,-2.9068535E-2,-2.0754302E-2,8.3179265E-2,1.0354342E-1,9.207484E-3,-2.2665432E-2,9.45448E-3],"categories":[],"categories_nodes":[],"categories_segments":[],"categories_sizes":[],"default_left":[0,0,0,0,0,0,0,0,0,0,0,0,0,0,0,0,0,0,0,0,0,0,0,0,0,0,0,0,0,0,0,0,0,0,0,0,0,0,0,0,0,0,0,0,0,0,0,0,0,0,0,0,0,0,0,0,0,0,0],"id":8,"left_children":[1,3,5,7,9,11,13,-1,15,17,19,21,23,25,27,29,-1,-1,-1,31,33,35,37,-1,-1,39,41,-1,-1,-1,-1,-1,43,-1,-1,45,47,-1,49,51,53,55,57,-1,-1,-1,-1,-1,-1,-1,-1,-1,-1,-1,-1,-1,-1,-1,-1],"loss_changes":[5.1304974E1,1.8302834E1,2.8754623E1,1.5609315E1,1.2306129E1,2.3480232E1,2.1225634E1,0E0,7.1390495E0,1.0534563E1,1.1628759E1,2.0165993E1,8.240652E0,1.1281347E1,9.83942E0,2.1751595E-1,0E0,0E0,0E0,9.793446E0,1.05116E1,8.389795E0,1.6290627E1,0E0,0E0,4.7580705E0,1.0209166E1,0E0,0E0,0E0,0E0,0E0,1.0016834E1,0E0,0E0,6.356381E-1,4.8454676E0,0E0,1.3946945E1,4.0756874E0,5.814193E0,2.383442E0,4.908631E-1,0E0,0E0,0E0,0E0,0E0,0E0,0E0,0E0,0E0,0E0,0E0,0E0,0E0,0E0,0E0,0E0],"parents":[2147483647,0,0,1,1,2,2,3,3,4,4,5,5,6,6,8,8,9,9,10,10,11,11,12,12,13,13,14,14,15,15,19,19,20,20,21,21,22,22,25,25,26,26,32,32,35,35,36,36,38,38,39,39,40,40,41,41,42,42],"right_children":[2,4,6,8,10,12,14,-1,16,18,20,22,24,26,28,30,-1,-1,-1,32,34,36,38,-1,-1,40,42,-1,-1,-1,-1,-1,44,-1,-1,46,48,-1,50,52,54,56,58,-1,-1,-1,-1,-1,-1,-1,-1,-1,-1,-1,-1,-1,-1,-1,-1],"split_conditions":[1.6703095E-2,-1.12475455E-1,1.02462685E-2,-2.8766582E-2,-1.5062024E-2,5.012649E-2,5.963293E-2,-2.429503E-2,3.7295006E-2,6.5004595E-2,4.2796098E-2,-2.7392085E-3,-2.90545E-2,2.046566E-2,1.380453E-2,-1.53055675E-2,-1.5670916E-2,1.0294727E-1,-2.131778E-2,-9.419716E-2,5.9187192E-2,-3.2040436E-2,-1.9538773E-2,7.029088E-2,-2.6958121E-2,-8.714442E-3,1.570905E-2,1.0871913E-1,-1.8656915E-2,3.2868635E-2,1.1797746E-1,7.653947E-2,-2.2240153E-2,-2.1163026E-2,1.07149445E-1,5.4851722E-2,7.4252523E-3,-2.087656E-2,-2.8395731E-2,1.2333114E-2,-2.4863575E-2,1.5652843E-2,1.3830569E-2,3.763957E-2,-2.3319362E-2,-2.5312692E-2,1.0058015E-2,-1.4970707E-2,9.753553E-2,-1.866859E-2,1.2147583E-1,3.6517035E-2,-2.9068535E-2,-2.0754302E-2,8.3179265E-2,1.0354342E-1,9.207484E-3,-2.2665432E-2,9.45448E-3],"split_indices":[7844,6348,717,2041,2678,1535,89,0,93,4505,2839,7905,70,5682,838,38,0,0,0,1924,1083,6347,274,0,0,6256,8628,0,0,0,0,0,3778,0,0,5523,660,0,5980,5016,3965,546,645,0,0,0,0,0,0,0,0,0,0,0,0,0,0,0,0],"split_type":[0,0,0,0,0,0,0,0,0,0,0,0,0,0,0,0,0,0,0,0,0,0,0,0,0,0,0,0,0,0,0,0,0,0,0,0,0,0,0,0,0,0,0,0,0,0,0,0,0,0,0,0,0,0,0,0,0,0,0],"sum_hessian":[3.316025E2,2.3022963E2,1.01372894E2,1.1111192E1,2.1911844E2,4.6575676E1,5.4797215E1,4.330401E0,6.780791E0,5.462476E0,2.1365596E2,3.574731E1,1.0828366E1,4.781E1,6.9872108E0,5.6802607E0,1.1005303E0,2.9836748E0,2.4788008E0,2.087257E2,4.930262E0,9.870515E0,2.5876795E1,1.7883046E0,9.040062E0,3.9285164E1,8.524841E0,5.3395863E0,1.6476244E0,1.0657344E0,4.6145263E0,1.6303451E0,2.0709535E2,2.421716E0,2.5085464E0,6.4958906E0,3.3746247E0,2.2577844E0,2.361901E1,3.553324E1,3.7519221E0,4.3756986E0,4.1491423E0,6.102341E0,2.0099301E2,5.4922714E0,1.003619E0,1.0043092E0,2.3703156E0,1.6567501E0,2.1962261E1,1.7052801E0,3.382796E1,2.2782378E0,1.4736843E0,3.3364642E0,1.0392343E0,3.123197E0,1.0259454E0],"tree_param":{"num_deleted":"0","num_feature":"8964","num_nodes":"59","size_leaf_vector":"0"}},{"base_weights":[1.8465813E-2,-3.8891286E-2,1.7808453E0,-8.7829106E-2,1.9381855E0,1.1516761E-1,-1.9508077E-2,1.7700875E0,-1.3555036E-1,6.1659943E-3,1.1290743E-1,1.1814387E-1,-1.8309424E-2,-2.034614E-1,1.2394937E0,-2.535549E-1,1.5938998E0,-2.4227122E-2,2.000362E0,-1.6074067E-2,5.154733E-2,-1.7771874E-2,1.0423553E-1,1.1614386E-1,-1.5944032E-2],"categories":[],"categories_nodes":[],"categories_segments":[],"categories_sizes":[],"default_left":[0,0,0,0,0,0,0,0,0,0,0,0,0,0,0,0,0,0,0,0,0,0,0,0,0],"id":9,"left_children":[1,3,5,7,9,-1,-1,11,13,-1,-1,-1,-1,15,17,19,21,-1,23,-1,-1,-1,-1,-1,-1],"loss_changes":[3.3086674E1,3.0871546E1,1.2601452E1,2.77789E1,4.1974735E0,0E0,0E0,1.0805405E1,2.8617159E1,0E0,0E0,0E0,0E0,2.6543388E1,1.9907135E1,2.5050688E1,8.403854E0,0E0,8.378757E0,0E0,0E0,0E0,0E0,0E0,0E0],"parents":[2147483647,0,0,1,1,2,2,3,3,4,4,7,7,8,8,13,13,14,14,15,15,16,16,18,18],"right_children":[2,4,6,8,10,-1,-1,12,14,-1,-1,-1,-1,16,18,20,22,-1,24,-1,-1,-1,-1,-1,-1],"split_conditions":[7.15149E-2,6.551772E-2,5.0095078E-2,-1.1080365E-1,1.1291723E-2,1.1516761E-1,-1.9508077E-2,1.5848678E-2,5.2208252E-2,6.1659943E-3,1.1290743E-1,1.1814387E-1,-1.8309424E-2,4.6387248E-2,3.925408E-2,5.3373344E-2,-7.6916525E-3,-2.4227122E-2,1.0021269E-2,-1.6074067E-2,5.154733E-2,-1.7771874E-2,1.0423553E-1,1.1614386E-1,-1.5944032E-2],"split_indices":[2982,2837,480,1666,831,0,0,70,341,0,0,0,0,2599,137,2763,2990,0,1494,0,0,0,0,0,0],"split_type":[0,0,0,0,0,0,0,0,0,0,0,0,0,0,0,0,0,0,0,0,0,0,0,0,0],"sum_hessian":[3.256303E2,3.1631372E2,9.31658E0,3.0960574E2,6.707976E0,7.4601493E0,1.8564306E0,6.8493657E0,3.0275638E2,1.2130198E0,5.494956E0,5.2785587E0,1.5708069E0,2.8931943E2,1.3436949E1,2.823102E2,7.0092244E0,4.2255445E0,9.211405E0,2.688431E2,1.3467109E1,1.4653109E0,5.5439134E0,8.085468E0,1.1259366E0],"tree_param":{"num_deleted":"0","num_feature":"8964","num_nodes":"25","size_leaf_vector":"0"}},{"base_weights":[-1.6100079E-2,-2.806149E-1,2.7532035E-1,1.2070042E0,-3.210173E-1,-9.062131E-2,7.578659E-1,-1.7290045E-2,9.692194E-2,-3.6762148E-1,9.960086E-1,1.2251788E0,-2.660648E-1,3.9831647E-1,1.9132941E0,-4.0172186E-1,7.414811E-2,9.5394626E-2,-2.0512706E-2,-2.3651173E-2,1.1060449E-1,-4.4696936E-1,9.05572E-1,1.5881665E0,1.2161417E-1,-1.9934969E-2,2.2707067E0,1.1189955E0,-4.3612105E-1,7.716715E-2,-5.026251E-1,1.741098E0,-3.0000708E-1,-1.9608216E-2,2.11167E0,-2.8354156E-1,9.727188E-1,1.2640314E-1,1.6903864E-2,-1.5671568E-2,9.040965E-2,-2.300976E-2,6.726827E-2,-2.7978143E-2,4.6200376E-2,1.126941E-1,-1.6314378E-2,-2.301324E-2,9.830995E-3,2.6968617E-2,1.1655958E-1,-2.5173727E-2,6.334853E-2,7.994844E-2,-2.4101753E-2],"categories":[],"categories_nodes":[],"categories_segments":[],"categories_sizes":[],"default_left":[0,0,0,0,0,0,0,0,0,0,0,0,0,0,0,0,0,0,0,0,0,0,0,0,0,0,0,0,0,0,0,0,0,0,0,0,0,0,0,0,0,0,0,0,0,0,0,0,0,0,0,0,0,0,0],"id":10,"left_children":[1,3,5,7,9,11,13,-1,-1,15,17,19,21,23,25,27,-1,-1,-1,-1,-1,29,31,33,35,-1,37,39,41,-1,43,45,47,-1,49,51,53,-1,-1,-1,-1,-1,-1,-1,-1,-1,-1,-1,-1,-1,-1,-1,-1,-1,-1],"loss_changes":[2.5296091E1,1.0724644E1,2.7645039E1,6.073958E0,1.0692076E1,2.1034676E1,2.726273E1,0E0,0E0,1.0895386E1,8.501423E0,1.9033514E1,1.7355713E1,1.7161472E1,1.3917778E1,8.912617E0,0E0,0E0,0E0,0E0,0E0,8.523952E0,1.1629942E1,1.1052717E1,1.5396433E1,0E0,6.003174E0,4.360452E0,7.404152E0,0E0,6.105524E0,7.796028E0,5.1764715E-1,0E0,1.4890366E0,1.1032496E1,1.3860193E1,0E0,0E0,0E0,0E0,0E0,0E0,0E0,0E0,0E0,0E0,0E0,0E0,0E0,0E0,0E0,0E0,0E0,0E0],"parents":[2147483647,0,0,1,1,2,2,3,3,4,4,5,5,6,6,9,9,10,10,11,11,12,12,13,13,14,14,15,15,21,21,22,22,23,23,24,24,26,26,27,27,28,28,30,30,31,31,32,32,34,34,35,35,36,36],"right_children":[2,4,6,8,10,12,14,-1,-1,16,18,20,22,24,26,28,-1,-1,-1,-1,-1,30,32,34,36,-1,38,40,42,-1,44,46,48,-1,50,52,54,-1,-1,-1,-1,-1,-1,-1,-1,-1,-1,-1,-1,-1,-1,-1,-1,-1,-1],"split_conditions":[8.401768E-2,4.5292624E-3,-4.297145E-3,2.5316527E-2,-1.9314921E-3,-1.0908845E-2,4.221474E-2,-1.7290045E-2,9.692194E-2,1.07405744E-1,3.214815E-2,-8.008625E-3,1.4631782E-2,-7.07275E-2,-1.2816459E-1,-3.2720614E-2,7.414811E-2,9.5394626E-2,-2.0512706E-2,-2.3651173E-2,1.1060449E-1,-7.522217E-2,1.0291099E-2,4.917308E-3,-2.087139E-3,-1.9934969E-2,1.5116753E-2,-4.875897E-2,7.419603E-2,7.716715E-2,-6.8067475E-3,1.4393765E-3,2.5645303E-2,-1.9608216E-2,9.777242E-3,1.206955E-1,4.024763E-4,1.2640314E-1,1.6903864E-2,-1.5671568E-2,9.040965E-2,-2.300976E-2,6.726827E-2,-2.7978143E-2,4.6200376E-2,1.126941E-1,-1.6314378E-2,-2.301324E-2,9.830995E-3,2.6968617E-2,1.1655958E-1,-2.5173727E-2,6.334853E-2,7.994844E-2,-2.4101753E-2],"split_indices":[3875,3311,260,4307,7486,2678,1200,0,0,317,1174,2708,1606,308,1921,5771,0,0,0,0,0,1696,966,1433,2024,0,3417,64,73,0,6071,121,18,0,1011,2665,6055,0,0,0,0,0,0,0,0,0,0,0,0,0,0,0,0,0,0],"split_type":[0,0,0,0,0,0,0,0,0,0,0,0,0,0,0,0,0,0,0,0,0,0,0,0,0,0,0,0,0,0,0,0,0,0,0,0,0,0,0,0,0,0,0,0,0,0,0,0,0,0,0,0,0,0,0],"sum_hessian":[3.2615604E2,1.7098994E2,1.5516609E2,3.75767E0,1.6723227E2,8.8706856E1,6.6459236E1,1.3720641E0,2.3856058E0,1.6221307E2,5.019193E0,9.732349E0,7.89745E1,5.1712067E1,1.4747173E1,1.6004684E2,2.1662316E0,2.8284123E0,2.1907809E0,3.7685003E0,5.9638495E0,6.894732E1,1.00271845E1,8.862542E0,4.284952E1,1.9590644E0,1.2788109E1,2.8428006E0,1.5720404E2,1.1484188E0,6.7798904E1,5.660191E0,4.3669934E0,1.9054421E0,6.9571004E0,2.9481937E1,1.3367585E1,1.1013424E1,1.774685E0,1.1005797E0,1.7422209E0,1.5583978E2,1.3642665E0,6.57813E1,2.0175958E0,4.4630017E0,1.1971892E0,3.3569498E0,1.0100437E0,1.2758689E0,5.6812315E0,2.6410952E1,3.0709863E0,9.275491E0,4.0920944E0],"tree_param":{"num_deleted":"0","num_feature":"8964","num_nodes":"55","size_leaf_vector":"0"}},{"base_weights":[-2.036968E-2,6.078335E-1,-2.883872E-1,2.3341382E-1,1.6606774E0,-3.479726E-1,1.1410909E0,-5.1560048E-2,1.3994964E0,-2.198576E-2,1.9298317E0,1.5587447E0,-3.8353527E-1,1.1463912E-1,-3.4645385E-1,-3.0870262E-1,8.4577346E-1,-2.1257846E-2,1.8038594E0,-1.879054E-2,2.1272638E0,1.3390842E-3,1.0143401E-1,-4.139915E-1,1.2547728E0,1.4324739E-3,-2.2435268E-2,7.5061165E-2,-3.8681796E-1,-3.1550616E-1,1.7380193E0,-5.778991E-2,2.309644E0,2.315729E0,3.8576585E-3,-4.5048308E-1,9.54458E-1,-1.5558846E-2,9.439399E-2,-2.2671714E-2,4.846465E-2,1.4572339E-2,-2.4638828E-2,-1.7259197E-2,1.11037984E-1,1.3963053E-2,-1.7308244E-2,2.9780874E-2,1.23853184E-1,1.2225612E-1,7.956518E-4,6.0709853E-2,-2.3565587E-2,-2.0437682E-2,9.2012756E-2],"categories":[],"categories_nodes":[],"categories_segments":[],"categories_sizes":[],"default_left":[0,0,0,0,0,0,0,0,0,0,0,0,0,0,0,0,0,0,0,0,0,0,0,0,0,0,0,0,0,0,0,0,0,0,0,0,0,0,0,0,0,0,0,0,0,0,0,0,0,0,0,0,0,0,0],"id":11,"left_children":[1,3,5,7,9,11,13,15,17,-1,19,21,23,-1,25,27,29,-1,31,-1,33,-1,-1,35,37,-1,-1,-1,39,41,43,45,47,49,-1,51,53,-1,-1,-1,-1,-1,-1,-1,-1,-1,-1,-1,-1,-1,-1,-1,-1,-1,-1],"loss_changes":[5.5873306E1,3.8737663E1,2.0205374E1,2.4788074E1,1.5475563E1,1.5788006E1,1.7137424E1,1.4275255E1,1.1570557E1,0E0,1.1323853E1,3.0407457E0,1.1532604E1,0E0,2.0583892E-1,7.358573E0,1.4842243E1,0E0,1.15993E1,0E0,8.107735E0,0E0,0E0,1.1288353E1,4.827117E0,0E0,0E0,0E0,4.662997E0,8.796002E-1,8.766403E0,4.4435635E-1,1.2794266E0,5.795616E0,0E0,7.939369E0,7.959262E0,0E0,0E0,0E0,0E0,0E0,0E0,0E0,0E0,0E0,0E0,0E0,0E0,0E0,0E0,0E0,0E0,0E0,0E0],"parents":[2147483647,0,0,1,1,2,2,3,3,4,4,5,5,6,6,7,7,8,8,10,10,11,11,12,12,14,14,15,15,16,16,18,18,20,20,23,23,24,24,28,28,29,29,30,30,31,31,32,32,33,33,35,35,36,36],"right_children":[2,4,6,8,10,12,14,16,18,-1,20,22,24,-1,26,28,30,-1,32,-1,34,-1,-1,36,38,-1,-1,-1,40,42,44,46,48,50,-1,52,54,-1,-1,-1,-1,-1,-1,-1,-1,-1,-1,-1,-1,-1,-1,-1,-1,-1,-1],"split_conditions":[3.327335E-2,-2.2482075E-2,5.446476E-2,1.7016625E-3,-7.081743E-2,-6.0114186E-2,-7.127253E-2,1.8130688E-2,8.493343E-3,-2.198576E-2,-1.4784059E-2,-6.8594655E-3,6.6074096E-2,1.1463912E-1,1.1332952E-1,6.091779E-3,-1.7388849E-2,-2.1257846E-2,-2.7039902E-2,-1.879054E-2,4.722565E-2,1.3390842E-3,1.0143401E-1,-1.4918074E-3,-3.5877045E-2,1.4324739E-3,-2.2435268E-2,7.5061165E-2,5.125145E-2,-5.09842E-2,-2.2387195E-3,4.0589564E-2,2.650378E-2,1.8973377E-2,3.8576585E-3,5.3109513E-3,-6.192188E-3,-1.5558846E-2,9.439399E-2,-2.2671714E-2,4.846465E-2,1.4572339E-2,-2.4638828E-2,-1.7259197E-2,1.11037984E-1,1.3963053E-2,-1.7308244E-2,2.9780874E-2,1.23853184E-1,1.2225612E-1,7.956518E-4,6.0709853E-2,-2.3565587E-2,-2.0437682E-2,9.2012756E-2],"split_indices":[2200,7791,1648,4067,314,384,145,3062,1263,0,4067,292,206,0,69,535,498,0,476,0,2470,0,0,3646,1,0,0,0,7838,128,5222,2428,7614,8099,0,795,33,0,0,0,0,0,0,0,0,0,0,0,0,0,0,0,0,0,0],"split_type":[0,0,0,0,0,0,0,0,0,0,0,0,0,0,0,0,0,0,0,0,0,0,0,0,0,0,0,0,0,0,0,0,0,0,0,0,0,0,0,0,0,0,0,0,0,0,0,0,0,0,0,0,0,0,0],"sum_hessian":[3.298083E2,9.8251E1,2.3155728E2,7.337763E1,2.4873367E1,2.2301773E2,8.539547E0,5.973503E1,1.3642601E1,2.7533593E0,2.2120008E1,3.299174E0,2.1971855E2,4.5080166E0,4.0315304E0,4.69398E1,1.2795232E1,2.4655576E0,1.1177043E1,1.6734699E0,2.0446539E1,1.0225874E0,2.2765865E0,2.1644218E2,3.276371E0,1.0177591E0,3.0137715E0,1.1883272E0,4.5751472E1,5.8403134E0,6.9549184E0,2.5771244E0,8.599919E0,1.8606495E1,1.840043E0,2.1147375E2,4.9684286E0,1.0896596E0,2.1867113E0,4.424372E1,1.5077504E0,1.1745868E0,4.6657267E0,1.3620627E0,5.592856E0,1.2028476E0,1.3742766E0,1.1708192E0,7.4291E0,1.755559E1,1.0509058E0,1.9052652E0,2.0956848E2,2.1689837E0,2.7994447E0],"tree_param":{"num_deleted":"0","num_feature":"8964","num_nodes":"55","size_leaf_vector":"0"}},{"base_weights":[1.2016737E-2,7.518476E-1,-1.8707947E-1,2.2771904E-1,1.5941392E0,-2.3878093E-1,1.4947487E0,1.277792E0,-3.1124356E-1,-2.2205022E-1,1.8571768E0,-2.8030035E-1,1.6549004E0,-1.8712187E-2,1.0261065E-1,-3.001661E-1,1.9437062E0,6.900876E-2,-5.030786E-1,7.961326E-3,-2.0314468E-2,2.2338338E0,3.5421383E-1,-3.227666E-1,1.4466181E0,8.159743E-3,9.896343E-2,-2.290948E-2,9.1477465E-3,1.1522962E-1,-1.7066486E-2,3.3901054E-2,-2.86922E-2,5.4473076E-3,1.1919671E-1,7.990941E-2,-2.2938127E-2,8.866506E-2,-3.5670114E-1,-1.7122375E-2,1.01200156E-1,6.187729E-2,-1.9340936E-2],"categories":[],"categories_nodes":[],"categories_segments":[],"categories_sizes":[],"default_left":[0,0,0,0,0,0,0,0,0,0,0,0,0,0,0,0,0,0,0,0,0,0,0,0,0,0,0,0,0,0,0,0,0,0,0,0,0,0,0,0,0,0,0],"id":12,"left_children":[1,3,5,7,9,11,13,15,17,19,21,23,25,-1,-1,27,29,-1,31,-1,-1,33,35,37,39,-1,-1,-1,-1,-1,-1,-1,-1,-1,-1,-1,-1,-1,41,-1,-1,-1,-1],"loss_changes":[4.8475754E1,3.0443352E1,2.290944E1,2.5402222E1,1.3119888E1,2.0315899E1,8.971016E0,1.6535578E1,1.0428642E1,3.6382094E-1,1.2422501E1,1.864901E1,2.3682365E0,0E0,0E0,4.9391568E-1,9.700649E0,0E0,2.7023726E0,0E0,0E0,5.6330795E0,6.665487E0,1.7902437E1,7.02824E0,0E0,0E0,0E0,0E0,0E0,0E0,0E0,0E0,0E0,0E0,0E0,0E0,0E0,1.1990791E1,0E0,0E0,0E0,0E0],"parents":[2147483647,0,0,1,1,2,2,3,3,4,4,5,5,6,6,7,7,8,8,9,9,10,10,11,11,12,12,15,15,16,16,18,18,21,21,22,22,23,23,24,24,38,38],"right_children":[2,4,6,8,10,12,14,16,18,20,22,24,26,-1,-1,28,30,-1,32,-1,-1,34,36,38,40,-1,-1,-1,-1,-1,-1,-1,-1,-1,-1,-1,-1,-1,42,-1,-1,-1,-1],"split_conditions":[-4.3810396E-3,1.36658745E-2,5.010282E-2,-1.0664164E-2,7.1560526E-3,1.342667E-1,-2.3078373E-2,1.9942619E-2,-6.905222E-2,-2.8956445E-2,7.260676E-4,9.279576E-2,-1.3915491E-2,-1.8712187E-2,1.0261065E-1,1.0273865E-1,1.6953522E-2,6.900876E-2,3.3277825E-2,7.961326E-3,-2.0314468E-2,2.8917104E-2,-7.279119E-2,-1.0114129E-1,7.388294E-3,8.159743E-3,9.896343E-2,-2.290948E-2,9.1477465E-3,1.1522962E-1,-1.7066486E-2,3.3901054E-2,-2.86922E-2,5.4473076E-3,1.1919671E-1,7.990941E-2,-2.2938127E-2,8.866506E-2,-1.1477774E-1,-1.7122375E-2,1.01200156E-1,6.187729E-2,-1.9340936E-2],"split_indices":[3767,990,18,162,2970,5295,164,2970,389,449,3034,164,102,0,0,7304,8658,0,6786,0,0,2446,13,140,680,0,0,0,0,0,0,0,0,0,0,0,0,0,2705,0,0,0,0],"split_type":[0,0,0,0,0,0,0,0,0,0,0,0,0,0,0,0,0,0,0,0,0,0,0,0,0,0,0,0,0,0,0,0,0,0,0,0,0,0,0,0,0,0,0],"sum_hessian":[3.2714606E2,6.878147E1,2.5836456E2,4.318149E1,2.5599976E1,2.5149144E2,6.873132E0,1.4181169E1,2.9000326E1,3.2582989E0,2.2341677E1,2.4692943E2,4.5620074E0,1.6545715E0,5.218561E0,4.3715453E0,9.809623E0,2.3230739E0,2.6677252E1,1.1057494E0,2.1525495E0,1.747579E1,4.8658867E0,2.4179657E2,5.1328664E0,1.0832891E0,3.4787183E0,3.3329725E0,1.0385728E0,8.464264E0,1.345359E0,1.0229312E0,2.565432E1,1.2668959E0,1.6208893E1,1.541427E0,3.3244598E0,3.035625E0,2.3876094E2,1.3516349E0,3.7812314E0,3.6835766E0,2.3507736E2],"tree_param":{"num_deleted":"0","num_feature":"8964","num_nodes":"43","size_leaf_vector":"0"}},{"base_weights":[2.475513E-2,-2.6260775E-1,8.1763E-1,1.7520479E0,-3.3321172E-1,-1.1039797E-1,1.3387564E0,1.0985493E-1,-1.7091472E-2,-4.065476E-1,1.274986E0,-3.8078088E-1,8.981982E-2,-2.586187E-1,1.7781305E0,-4.767251E-1,9.3857926E-1,1.04863204E-1,-2.275416E-2,-2.8663222E-2,5.7430863E-2,6.655669E-2,-2.7252153E-2,-1.7394888E-1,2.0257404E0,6.744823E-1,-5.2721024E-1,1.01867236E-1,-2.4699781E-2,3.292433E-2,-2.3770189E-2,-1.9837145E-2,2.160812E0,-2.4271227E-2,8.902274E-2,6.610691E-2,-2.771967E-2,-1.7536614E-2,1.1334341E-1],"categories":[],"categories_nodes":[],"categories_segments":[],"categories_sizes":[],"default_left":[0,0,0,0,0,0,0,0,0,0,0,0,0,0,0,0,0,0,0,0,0,0,0,0,0,0,0,0,0,0,0,0,0,0,0,0,0,0,0],"id":13,"left_children":[1,3,5,7,9,11,13,-1,-1,15,17,19,-1,21,23,25,27,-1,-1,-1,-1,-1,-1,29,31,33,35,-1,-1,-1,-1,-1,37,-1,-1,-1,-1,-1,-1],"loss_changes":[7.6071075E1,3.545085E1,4.309774E1,8.634134E0,2.8548126E1,1.7625633E1,4.0429237E1,0E0,0E0,2.1975513E1,1.6043789E1,9.3735485E0,0E0,6.7170515E0,2.2002167E1,1.2991356E1,1.9336403E1,0E0,0E0,0E0,0E0,0E0,0E0,1.8093697E0,1.3889313E1,1.3144229E1,1.1231594E1,0E0,0E0,0E0,0E0,0E0,1.0884903E1,0E0,0E0,0E0,0E0,0E0,0E0],"parents":[2147483647,0,0,1,1,2,2,3,3,4,4,5,5,6,6,9,9,10,10,11,11,13,13,14,14,15,15,16,16,23,23,24,24,25,25,26,26,32,32],"right_children":[2,4,6,8,10,12,14,-1,-1,16,18,20,-1,22,24,26,28,-1,-1,-1,-1,-1,-1,30,32,34,36,-1,-1,-1,-1,-1,38,-1,-1,-1,-1,-1,-1],"split_conditions":[1.416856E-2,-6.348845E-2,1.2145439E-2,-2.1313936E-2,5.6474365E-2,2.165538E-2,-2.2932913E-2,1.0985493E-1,-1.7091472E-2,1.975178E-2,-1.3399985E-1,-3.9025627E-2,8.981982E-2,-2.949547E-2,-5.710396E-2,-3.9447494E-2,2.7509943E-5,1.04863204E-1,-2.275416E-2,-2.8663222E-2,5.7430863E-2,6.655669E-2,-2.7252153E-2,1.2023227E-2,3.5390683E-2,1.1857478E-2,-6.724706E-2,1.01867236E-1,-2.4699781E-2,3.292433E-2,-2.3770189E-2,-1.9837145E-2,9.897577E-3,-2.4271227E-2,8.902274E-2,6.610691E-2,-2.771967E-2,-1.7536614E-2,1.1334341E-1],"split_indices":[633,339,705,119,2010,858,2848,0,0,746,6526,7714,0,310,4062,7760,5360,0,0,0,0,0,0,611,3660,8248,1201,0,0,0,0,0,8192,0,0,0,0,0,0],"split_type":[0,0,0,0,0,0,0,0,0,0,0,0,0,0,0,0,0,0,0,0,0,0,0,0,0,0,0,0,0,0,0,0,0,0,0,0,0,0,0],"sum_hessian":[3.319329E2,2.4412358E2,8.7809296E1,7.4593377E0,2.3666425E2,3.1860285E1,5.594901E1,6.1111293E0,1.3482087E0,2.2705734E2,9.606903E0,2.860448E1,3.255804E0,1.2158247E1,4.3790764E1,2.1641234E2,1.0644998E1,6.3680253E0,3.2388775E0,2.5962164E1,2.642318E0,1.2992957E0,1.0858952E1,4.9628296E0,3.8827934E1,8.572586E0,2.0783975E2,5.785467E0,4.8595304E0,1.0045393E0,3.95829E0,1.948297E0,3.687964E1,4.458133E0,4.114453E0,2.3206577E0,2.055191E2,1.4007652E0,3.547887E1],"tree_param":{"num_deleted":"0","num_feature":"8964","num_nodes":"39","size_leaf_vector":"0"}},{"base_weights":[3.5734836E-2,-3.046374E-1,4.9219006E-1,6.906454E-1,-3.6657754E-1,1.0926449E-1,3.8515168E-1,9.88779E-2,-3.7049234E-1,8.235018E-2,-3.9816982E-1,1.3973042E-1,1.094577E0,9.432997E-3,-2.4884997E-2,-4.3493852E-1,1.1021783E0,6.1424136E-1,-2.46023E-1,1.5339521E0,-4.084414E-1,6.630498E-2,-4.6270633E-1,9.238082E-2,-1.7246766E-2,1.477966E0,2.4574368E-1,1.0174533E0,-4.0633938E-1,1.9098612E0,-1.5679827E-2,9.876369E-3,-2.5856657E-2,5.1494658E-2,-2.4530947E-2,1.0673632E-1,1.0747113E-2,-3.6579461E-3,6.414177E-2,9.948551E-2,-2.1267492E-2,4.7262307E-2,-2.5048254E-2,-1.8170359E-2,1.05135284E-1,-2.3872368E-2,5.2842285E-2],"categories":[],"categories_nodes":[],"categories_segments":[],"categories_sizes":[],"default_left":[0,0,0,0,0,0,0,0,0,0,0,0,0,0,0,0,0,0,0,0,0,0,0,0,0,0,0,0,0,0,0,0,0,0,0,0,0,0,0,0,0,0,0,0,0,0,0],"id":14,"left_children":[1,3,5,7,9,-1,11,-1,13,-1,15,17,19,-1,-1,21,23,25,27,29,31,-1,33,-1,-1,35,37,39,41,43,45,-1,-1,-1,-1,-1,-1,-1,-1,-1,-1,-1,-1,-1,-1,-1,-1],"loss_changes":[5.067793E1,1.1776281E1,2.4403896E1,1.6160856E1,1.1891243E1,0E0,2.2870163E1,0E0,5.942332E-1,0E0,1.0116697E1,1.8344452E1,2.2975094E1,0E0,0E0,8.987034E0,5.4504156E0,1.3913305E1,1.1662982E1,1.5406601E1,6.5835273E-1,0E0,7.559498E0,0E0,0E0,1.0502676E1,1.0889107E1,1.0018883E1,6.8681574E0,1.0080589E1,3.547993E0,0E0,0E0,0E0,0E0,0E0,0E0,0E0,0E0,0E0,0E0,0E0,0E0,0E0,0E0,0E0,0E0],"parents":[2147483647,0,0,1,1,2,2,3,3,4,4,6,6,8,8,10,10,11,11,12,12,15,15,16,16,17,17,18,18,19,19,20,20,22,22,25,25,26,26,27,27,28,28,29,29,30,30],"right_children":[2,4,6,8,10,-1,12,-1,14,-1,16,18,20,-1,-1,22,24,26,28,30,32,-1,34,-1,-1,36,38,40,42,44,46,-1,-1,-1,-1,-1,-1,-1,-1,-1,-1,-1,-1,-1,-1,-1,-1],"split_conditions":[1.565279E-2,-5.8223475E-2,-8.414405E-2,1.8899258E-2,-1.0921124E-1,1.0926449E-1,1.7756294E-2,9.88779E-2,6.1436673E-3,8.235018E-2,4.2796098E-2,-5.343891E-3,4.602132E-2,9.432997E-3,-2.4884997E-2,-1.0337851E-1,-4.6077047E-2,9.984906E-3,-2.5364371E-2,4.3765154E-2,7.7814204E-3,6.630498E-2,-3.141347E-2,9.238082E-2,-1.7246766E-2,-1.9793201E-2,1.8048365E-2,2.3344731E-2,-1.8592006E-2,-2.0476924E-2,2.1191837E-2,9.876369E-3,-2.5856657E-2,5.1494658E-2,-2.4530947E-2,1.0673632E-1,1.0747113E-2,-3.6579461E-3,6.414177E-2,9.948551E-2,-2.1267492E-2,4.7262307E-2,-2.5048254E-2,-1.8170359E-2,1.05135284E-1,-2.3872368E-2,5.2842285E-2],"split_indices":[7844,388,139,8449,128,0,3679,0,5750,0,2839,2965,155,0,0,1327,6,5314,1380,1514,720,0,8021,0,0,6070,8869,4118,7483,45,1949,0,0,0,0,0,0,0,0,0,0,0,0,0,0,0,0],"split_type":[0,0,0,0,0,0,0,0,0,0,0,0,0,0,0,0,0,0,0,0,0,0,0,0,0,0,0,0,0,0,0,0,0,0,0,0,0,0,0,0,0,0,0,0,0,0,0],"sum_hessian":[3.2422183E2,1.85918E2,1.3830383E2,1.0297806E1,1.756202E2,7.0692167E0,1.3123462E2,4.2635245E0,6.0342813E0,1.9229834E0,1.736972E2,9.8393105E1,3.284152E1,1.0288393E0,5.0054417E0,1.702354E2,3.4618127E0,4.385511E1,5.453799E1,2.5396744E1,7.4447756E0,1.9167709E0,1.6831862E2,2.1021779E0,1.359635E0,1.2214548E1,3.1640564E1,5.5388656E0,4.8999126E1,2.0251646E1,5.145097E0,1.0079609E0,6.436815E0,2.4309123E0,1.6588771E2,7.5818734E0,4.632674E0,2.4910208E1,6.7303557E0,3.0825677E0,2.4562979E0,2.6178436E0,4.6381283E1,1.5144707E0,1.8737175E1,3.9844575E0,1.1606392E0],"tree_param":{"num_deleted":"0","num_feature":"8964","num_nodes":"47","size_leaf_vector":"0"}},{"base_weights":[-9.961536E-4,3.2292572E-1,-2.529974E-1,8.6134434E-2,1.2095152E0,-3.1748694E-1,1.3472253E0,-1.8211995E-1,7.3837686E-1,1.6585953E0,-1.7135683E-1,8.673863E-2,-3.531188E-1,-1.8765444E-2,9.5286556E-2,-3.424295E-1,5.613681E-1,1.7956405E0,3.2144016E-1,-1.0529059E-1,2.0611045E0,5.5083007E-2,-2.5771111E-2,-3.839501E-1,7.231101E-2,-4.0986776E-1,7.131151E-2,-3.0752662E-1,1.5704256E0,2.129154E0,1.7333328E-3,-4.6763927E-1,9.8749626E-1,-2.2713749E-2,3.3879172E-2,2.3302007E0,-1.9001449E-2,9.592945E-1,-4.247107E-1,-2.6081262E-2,3.1693816E-2,-2.603049E-2,3.4210816E-2,-1.710277E-2,1.0370783E-1,1.1291255E-1,3.296996E-2,-2.7211612E-2,1.0142156E-2,8.168158E-2,-8.34943E-3,2.8684383E-2,1.2132418E-1,-1.9395394E-2,8.7082915E-2,7.7197015E-2,-2.261406E-2],"categories":[],"categories_nodes":[],"categories_segments":[],"categories_sizes":[],"default_left":[0,0,0,0,0,0,0,0,0,0,0,0,0,0,0,0,0,0,0,0,0,0,0,0,0,0,0,0,0,0,0,0,0,0,0,0,0,0,0,0,0,0,0,0,0,0,0,0,0,0,0,0,0,0,0,0,0],"id":15,"left_children":[1,3,5,7,9,11,13,15,17,19,21,-1,23,-1,-1,25,27,29,31,33,35,-1,-1,37,-1,39,-1,41,43,45,-1,47,49,-1,-1,51,-1,53,55,-1,-1,-1,-1,-1,-1,-1,-1,-1,-1,-1,-1,-1,-1,-1,-1,-1,-1],"loss_changes":[2.7174797E1,3.0476974E1,1.9750246E1,2.0437717E1,1.9277298E1,1.3833277E1,7.876855E0,1.0087917E1,1.4416929E1,1.669236E1,4.2569423E0,0E0,1.0459925E1,0E0,0E0,8.805059E0,1.3726848E1,5.4481163E0,1.3923079E1,1.7456844E0,1.332885E1,0E0,0E0,1.0061285E1,0E0,8.165266E0,0E0,2.2481189E0,7.600277E0,7.6675415E-3,0E0,7.473028E-1,1.0873106E1,0E0,0E0,1.5171814E0,0E0,6.4723554E0,1.0024221E1,0E0,0E0,0E0,0E0,0E0,0E0,0E0,0E0,0E0,0E0,0E0,0E0,0E0,0E0,0E0,0E0,0E0,0E0],"parents":[2147483647,0,0,1,1,2,2,3,3,4,4,5,5,6,6,7,7,8,8,9,9,10,10,12,12,15,15,16,16,17,17,18,18,19,19,20,20,23,23,25,25,27,27,28,28,29,29,31,31,32,32,35,35,37,37,38,38],"right_children":[2,4,6,8,10,12,14,16,18,20,22,-1,24,-1,-1,26,28,30,32,34,36,-1,-1,38,-1,40,-1,42,44,46,-1,48,50,-1,-1,52,-1,54,56,-1,-1,-1,-1,-1,-1,-1,-1,-1,-1,-1,-1,-1,-1,-1,-1,-1,-1],"split_conditions":[-2.5943408E-3,1.3591558E-2,6.935116E-2,3.196269E-2,1.2749107E-2,-1.01661764E-1,-4.416277E-2,-1.6972363E-2,1.3013467E-2,-4.5124225E-2,-2.003282E-2,8.673863E-2,9.099647E-2,-1.8765444E-2,9.5286556E-2,5.642179E-2,7.595751E-2,2.2687532E-2,8.46934E-3,1.5469505E-2,-1.4356146E-2,5.5083007E-2,-2.5771111E-2,-1.12214506E-1,7.231101E-2,1.3013781E-2,7.131151E-2,3.1143803E-2,5.140527E-2,4.135364E-2,1.7333328E-3,7.542612E-2,2.2207491E-2,-2.2713749E-2,3.3879172E-2,2.8409641E-2,-1.9001449E-2,1.5510634E-2,-9.299462E-2,-2.6081262E-2,3.1693816E-2,-2.603049E-2,3.4210816E-2,-1.710277E-2,1.0370783E-1,1.1291255E-1,3.296996E-2,-2.7211612E-2,1.0142156E-2,8.168158E-2,-8.34943E-3,2.8684383E-2,1.2132418E-1,-1.9395394E-2,8.7082915E-2,7.7197015E-2,-2.261406E-2],"split_indices":[6194,593,422,5872,862,3065,212,7805,8573,8075,124,0,472,0,0,2763,7217,8669,3215,653,6135,0,0,1914,0,496,0,39,5475,120,0,7357,6481,0,0,8120,0,5107,2917,0,0,0,0,0,0,0,0,0,0,0,0,0,0,0,0,0,0],"split_type":[0,0,0,0,0,0,0,0,0,0,0,0,0,0,0,0,0,0,0,0,0,0,0,0,0,0,0,0,0,0,0,0,0,0,0,0,0,0,0,0,0,0,0,0,0,0,0,0,0,0,0,0,0,0,0,0,0],"sum_hessian":[3.3090646E2,1.4466847E2,1.8623799E2,1.1504048E2,2.9627983E1,1.7979384E2,6.4441586E0,8.202571E1,3.301477E1,2.2205353E1,7.4226313E0,2.254546E0,1.7753929E2,1.6581455E0,4.7860126E0,6.792029E1,1.4105422E1,8.402092E0,2.461268E1,4.262878E0,1.7942474E1,1.1108128E0,6.311818E0,1.753218E2,2.2174885E0,6.616568E1,1.7546102E0,7.952658E0,6.1527634E0,6.888408E0,1.5136837E0,1.14022665E1,1.3210414E1,3.2388287E0,1.024049E0,1.6201914E1,1.7405608E0,4.499753E0,1.7082205E2,6.0218143E1,5.9475374E0,6.9372053E0,1.0154531E0,1.3496387E0,4.8031244E0,5.839049E0,1.0493591E0,1.0402256E1,1.0000103E0,8.203882E0,5.0065317E0,1.203553E0,1.4998361E1,1.8383555E0,2.6613975E0,1.5996599E0,1.6922238E2],"tree_param":{"num_deleted":"0","num_feature":"8964","num_nodes":"57","size_leaf_vector":"0"}},{"base_weights":[2.7168011E-2,3.8167873E-1,-1.8979865E-1,7.835853E-1,-2.1205378E-1,-2.8786257E-1,6.901829E-1,1.8306902E-1,1.415996E0,9.716351E-2,-4.1474417E-1,8.781596E-1,-3.6667654E-1,1.5678931E0,-3.448244E-1,1.5545114E0,-7.8060634E-2,5.176008E-1,1.9557565E0,-5.170109E-1,6.8135805E-2,-2.4662308E-2,1.8214831E0,1.07247E0,-4.2443678E-1,-1.9526621E-2,2.0101287E0,3.347976E-2,-2.6644234E-2,1.0636159E-1,-1.690971E-2,-3.818468E-1,8.202152E-1,-2.717688E-2,9.296837E-2,3.5907355E-1,2.2672784E0,-5.6002337E-1,3.466727E-2,1.0744367E-1,5.879644E-3,9.9674195E-2,-2.1227935E-2,7.671915E-2,-4.586715E-1,1.143312E-1,5.530959E-3,4.585657E-2,-2.6514312E-2,-2.2205902E-2,7.56026E-2,-2.6314491E-2,5.1220655E-2,7.1407296E-2,-2.1358859E-2,8.890166E-3,1.1923271E-1,1.0127525E-2,-2.9114557E-2,6.782888E-2,-2.4679305E-2],"categories":[],"categories_nodes":[],"categories_segments":[],"categories_sizes":[],"default_left":[0,0,0,0,0,0,0,0,0,0,0,0,0,0,0,0,0,0,0,0,0,0,0,0,0,0,0,0,0,0,0,0,0,0,0,0,0,0,0,0,0,0,0,0,0,0,0,0,0,0,0,0,0,0,0,0,0,0,0,0,0],"id":16,"left_children":[1,3,5,7,9,11,13,15,17,-1,19,21,23,25,27,29,31,33,35,37,-1,-1,39,41,43,-1,45,-1,-1,-1,-1,47,49,51,-1,53,55,57,-1,-1,-1,-1,-1,-1,59,-1,-1,-1,-1,-1,-1,-1,-1,-1,-1,-1,-1,-1,-1,-1,-1],"loss_changes":[2.5069038E1,2.968749E1,1.7653206E1,2.7839375E1,2.2966465E1,1.7111217E1,1.923143E1,1.4123801E1,1.6390678E1,0E0,9.282534E0,1.6243176E1,1.4738726E1,1.0583588E1,2.3143392E0,7.5504723E0,9.536031E0,1.0890274E1,1.0158112E1,2.7491102E0,0E0,0E0,3.786356E0,1.0379105E1,1.1830135E1,0E0,4.6798706E0,0E0,0E0,0E0,0E0,5.4878182E0,8.420636E0,6.592208E0,0E0,4.6358514E0,4.0567093E0,8.7095356E-1,0E0,0E0,0E0,0E0,0E0,0E0,1.1053364E1,0E0,0E0,0E0,0E0,0E0,0E0,0E0,0E0,0E0,0E0,0E0,0E0,0E0,0E0,0E0,0E0],"parents":[2147483647,0,0,1,1,2,2,3,3,4,4,5,5,6,6,7,7,8,8,10,10,11,11,12,12,13,13,14,14,15,15,16,16,17,17,18,18,19,19,22,22,23,23,24,24,26,26,31,31,32,32,33,33,35,35,36,36,37,37,44,44],"right_children":[2,4,6,8,10,12,14,16,18,-1,20,22,24,26,28,30,32,34,36,38,-1,-1,40,42,44,-1,46,-1,-1,-1,-1,48,50,52,-1,54,56,58,-1,-1,-1,-1,-1,-1,60,-1,-1,-1,-1,-1,-1,-1,-1,-1,-1,-1,-1,-1,-1,-1,-1],"split_conditions":[-1.265331E-2,5.969201E-2,-3.9420802E-2,-1.414726E-2,-4.4684272E-2,6.492703E-3,-2.943786E-2,6.575879E-3,6.253523E-2,9.716351E-2,6.371213E-2,-7.1070543E-3,-1.1301765E-1,8.076508E-3,9.31018E-2,1.4171578E-2,1.8888058E-2,6.022113E-2,-3.8890585E-2,1.0466926E-2,6.8135805E-2,-2.4662308E-2,-3.923909E-4,-7.2120787E-3,-2.0212678E-2,-1.9526621E-2,1.5853263E-2,3.347976E-2,-2.6644234E-2,1.0636159E-1,-1.690971E-2,1.106783E-2,1.5189605E-2,3.2552328E-2,9.296837E-2,-2.3084592E-2,-6.204648E-2,9.610673E-3,3.466727E-2,1.0744367E-1,5.879644E-3,9.9674195E-2,-2.1227935E-2,7.671915E-2,-9.41799E-2,1.143312E-1,5.530959E-3,4.585657E-2,-2.6514312E-2,-2.2205902E-2,7.56026E-2,-2.6314491E-2,5.1220655E-2,7.1407296E-2,-2.1358859E-2,8.890166E-3,1.1923271E-1,1.0127525E-2,-2.9114557E-2,6.782888E-2,-2.4679305E-2],"split_indices":[1209,1298,4195,337,356,1142,1610,3436,7447,0,2641,1292,2924,986,5803,4422,4360,7055,3042,1583,0,0,5735,228,1144,0,713,0,0,0,0,4972,1054,8493,0,2981,6339,5104,0,0,0,0,0,0,215,0,0,0,0,0,0,0,0,0,0,0,0,0,0,0,0],"split_type":[0,0,0,0,0,0,0,0,0,0,0,0,0,0,0,0,0,0,0,0,0,0,0,0,0,0,0,0,0,0,0,0,0,0,0,0,0,0,0,0,0,0,0,0,0,0,0,0,0,0,0,0,0,0,0,0,0,0,0,0,0],"sum_hessian":[3.2398138E2,1.227143E2,2.0126707E2,7.298791E1,4.9726387E1,1.8169241E2,1.9574673E1,3.809943E1,3.488848E1,3.53623E0,4.619016E1,1.0861311E1,1.708311E2,1.03136215E1,9.261052E0,5.3017626E0,3.279767E1,1.382937E1,2.1059113E1,4.434773E1,1.8424313E0,4.62076E0,6.2405515E0,5.9138837E0,1.649172E2,1.9214518E0,8.39217E0,1.0479188E0,8.213133E0,3.9750328E0,1.3267298E0,2.4938631E1,7.8590355E0,1.0532684E1,3.2966852E0,3.7894096E0,1.7269703E1,4.3344692E1,1.0030339E0,5.0156693E0,1.2248819E0,3.4560175E0,2.457866E0,2.0800993E0,1.6283711E2,7.147913E0,1.244257E0,2.0264955E0,2.2912136E1,2.906132E0,4.9529033E0,7.4813595E0,3.0513253E0,1.2599051E0,2.5295045E0,1.0522789E0,1.6217424E1,1.0000837E0,4.234461E1,2.3585622E0,1.6047855E2],"tree_param":{"num_deleted":"0","num_feature":"8964","num_nodes":"61","size_leaf_vector":"0"}},{"base_weights":[1.28309745E-2,6.4890593E-1,-2.9169515E-1,2.7132165E-1,1.5753489E0,-3.9224082E-1,5.3251E-1,-2.032861E-1,9.79632E-1,-2.1973042E-2,1.7884834E0,7.931323E-2,-4.1730735E-1,1.1103427E-1,-7.673687E-2,1.2182213E0,-3.531804E-1,1.5500703E0,-1.3783038E-1,1.9786362E-1,2.0377386E0,-4.573767E-1,9.1160834E-1,8.8236517E-1,-5.0509536E-1,8.9252844E-2,-1.5848016E-2,-5.4301065E-1,4.6752766E-1,1.8046887E0,-2.0546054E-2,-4.7294027E-1,7.1985655E-2,-2.2158334E-2,6.335559E-2,7.3026754E-3,2.1635594E0,-4.7401413E-1,6.8002485E-2,-2.0381743E-2,8.6690746E-2,-2.1151887E-2,9.1397025E-2,1.7526712E-3,-2.7498418E-2,-2.8987989E-2,1.3453958E-2,-8.799843E-3,7.200353E-2,-1.860134E-2,1.01984076E-1,-2.6592646E-2,1.682315E-3,1.1356151E-1,1.1655035E-2,6.704709E-2,-2.45397E-2],"categories":[],"categories_nodes":[],"categories_segments":[],"categories_sizes":[],"default_left":[0,0,0,0,0,0,0,0,0,0,0,0,0,0,0,0,0,0,0,0,0,0,0,0,0,0,0,0,0,0,0,0,0,0,0,0,0,0,0,0,0,0,0,0,0,0,0,0,0,0,0,0,0,0,0,0,0],"id":17,"left_children":[1,3,5,7,9,11,13,15,17,-1,19,-1,21,-1,23,25,27,29,31,33,35,37,39,41,43,-1,-1,45,47,49,-1,51,-1,-1,-1,-1,53,55,-1,-1,-1,-1,-1,-1,-1,-1,-1,-1,-1,-1,-1,-1,-1,-1,-1,-1,-1],"loss_changes":[6.3853725E1,3.6904434E1,1.8685026E1,2.609336E1,1.3966339E1,1.0545479E1,2.5538965E1,1.0434313E1,2.0023186E1,0E0,1.0679771E1,0E0,1.0938164E1,0E0,8.2889805E0,4.65861E0,6.991603E0,1.1055046E1,6.718555E0,3.916396E0,5.4104843E0,6.4644203E0,7.342163E0,8.498003E0,3.545599E-1,0E0,0E0,1.2180138E0,5.674224E0,1.0205105E1,0E0,3.2148957E-1,0E0,0E0,0E0,0E0,4.144516E0,6.489105E0,0E0,0E0,0E0,0E0,0E0,0E0,0E0,0E0,0E0,0E0,0E0,0E0,0E0,0E0,0E0,0E0,0E0,0E0,0E0],"parents":[2147483647,0,0,1,1,2,2,3,3,4,4,5,5,6,6,7,7,8,8,10,10,12,12,14,14,15,15,16,16,17,17,18,18,19,19,20,20,21,21,22,22,23,23,24,24,27,27,28,28,29,29,31,31,36,36,37,37],"right_children":[2,4,6,8,10,12,14,16,18,-1,20,-1,22,-1,24,26,28,30,32,34,36,38,40,42,44,-1,-1,46,48,50,-1,52,-1,-1,-1,-1,54,56,-1,-1,-1,-1,-1,-1,-1,-1,-1,-1,-1,-1,-1,-1,-1,-1,-1,-1,-1],"split_conditions":[3.3204485E-2,-2.2482075E-2,4.6037495E-2,-4.393867E-2,-4.8621215E-2,-1.2558046E-1,-1.529662E-2,-1.9449657E-2,1.1886927E-2,-2.1973042E-2,1.3865817E-2,7.931323E-2,3.2751366E-2,1.1103427E-1,1.6726248E-2,1.0896104E-2,-3.0048834E-2,-6.0803995E-2,3.8576942E-2,3.0268438E-2,-7.277754E-2,9.995035E-2,1.092597E-2,-4.137868E-3,1.384628E-2,8.9252844E-2,-1.5848016E-2,3.0346757E-2,-3.4797285E-2,-9.091779E-3,-2.0546054E-2,3.338637E-3,7.1985655E-2,-2.2158334E-2,6.335559E-2,7.3026754E-3,8.129559E-2,-6.563481E-2,6.8002485E-2,-2.0381743E-2,8.6690746E-2,-2.1151887E-2,9.1397025E-2,1.7526712E-3,-2.7498418E-2,-2.8987989E-2,1.3453958E-2,-8.799843E-3,7.200353E-2,-1.860134E-2,1.01984076E-1,-2.6592646E-2,1.682315E-3,1.1356151E-1,1.1655035E-2,6.704709E-2,-2.45397E-2],"split_indices":[2200,7791,2686,1848,2746,150,1498,1420,675,0,4901,0,1576,0,1278,748,4330,6309,49,2438,308,510,314,2948,8202,0,0,3637,1600,5884,0,0,0,0,0,0,5762,451,0,0,0,0,0,0,0,0,0,0,0,0,0,0,0,0,0,0,0],"split_type":[0,0,0,0,0,0,0,0,0,0,0,0,0,0,0,0,0,0,0,0,0,0,0,0,0,0,0,0,0,0,0,0,0,0,0,0,0,0,0,0,0,0,0,0,0,0,0,0,0,0,0,0,0,0,0,0,0],"sum_hessian":[3.2767307E2,1.057203E2,2.2195276E2,7.602724E1,2.9693058E1,1.9828755E2,2.3665215E1,4.5950695E1,3.0076548E1,2.7389767E0,2.6954082E1,1.7015513E0,1.96586E2,5.5742993E0,1.8090916E1,3.7033312E0,4.224736E1,1.965566E1,1.0420887E1,3.894593E0,2.3059488E1,1.9146867E2,5.1173205E0,5.258089E0,1.2832827E1,2.585807E0,1.1175241E0,3.458597E1,7.6613903E0,1.7467373E1,2.1882863E0,9.172601E0,1.2482865E0,2.8009286E0,1.0936644E0,1.572852E0,2.1486637E1,1.9046428E2,1.004402E0,2.158382E0,2.9589386E0,2.4409196E0,2.8171692E0,1.0011026E0,1.1831723E1,3.336233E1,1.2236409E0,5.1034856E0,2.5579047E0,1.6451706E0,1.5822203E1,8.172338E0,1.0002636E0,2.0184338E1,1.3022997E0,1.0218699E0,1.894424E2],"tree_param":{"num_deleted":"0","num_feature":"8964","num_nodes":"57","size_leaf_vector":"0"}},{"base_weights":[1.479712E-2,-1.392719E-1,8.3507633E-1,2.1912198E-1,-3.4800088E-1,-3.7310123E-1,1.3350337E0,1.123857E0,2.0576334E-3,1.2917404E0,-3.8380006E-1,-2.775666E-2,5.2730955E-2,2.8707469E-1,1.7590954E0,-2.4302194E-2,1.6251472E0,-3.3709693E-1,5.453957E-1,8.142549E-3,8.2704805E-2,-4.6690658E-1,2.475501E-1,-3.1472257E-1,8.590677E-2,-1.6860574E-2,2.0297167E0,1.9304633E0,-1.1107076E-1,1.1984968E0,-4.6169043E-1,1.7743095E0,1.8153979E-1,-5.033736E-1,8.234374E-1,-3.4028018E-1,1.2893568E0,3.1743344E-2,-2.6037646E-2,3.1788334E-2,-2.0857198E-2,3.549571E-3,1.0766629E-1,2.866613E-3,1.07627586E-1,-1.5786296E-2,7.120208E-3,8.4066056E-2,4.2475313E-3,-2.6972428E-2,4.1792866E-2,8.360267E-3,1.0105824E-1,5.9595536E-2,-1.0646485E-2,5.0775718E-2,-2.6134316E-2,7.722937E-2,-1.8136065E-2,5.6214064E-2,-2.7453134E-2,9.9804595E-2,-2.0133397E-2],"categories":[],"categories_nodes":[],"categories_segments":[],"categories_sizes":[],"default_left":[0,0,0,0,0,0,0,0,0,0,0,0,0,0,0,0,0,0,0,0,0,0,0,0,0,0,0,0,0,0,0,0,0,0,0,0,0,0,0,0,0,0,0,0,0,0,0,0,0,0,0,0,0,0,0,0,0,0,0,0,0,0,0],"id":18,"left_children":[1,3,5,7,9,11,13,15,17,19,21,-1,-1,23,25,-1,27,29,31,-1,-1,33,35,37,-1,39,41,43,45,47,49,51,53,55,57,59,61,-1,-1,-1,-1,-1,-1,-1,-1,-1,-1,-1,-1,-1,-1,-1,-1,-1,-1,-1,-1,-1,-1,-1,-1,-1,-1],"loss_changes":[4.1742226E1,2.0883667E1,3.2043934E1,2.022255E1,1.0836706E1,4.761224E0,1.6007812E1,1.6870312E1,1.5674042E1,1.3639579E0,9.201633E0,0E0,0E0,1.0788622E1,1.2654198E1,0E0,8.390881E0,1.05735035E1,1.4293988E1,0E0,0E0,7.6314316E0,1.3174779E1,2.1348329E0,0E0,1.4313388E0,5.365982E0,5.3562126E0,2.1367699E-1,2.1198797E0,5.411298E0,2.5792274E0,1.0749567E1,4.924328E0,4.4906206E0,4.924533E0,1.0024017E1,0E0,0E0,0E0,0E0,0E0,0E0,0E0,0E0,0E0,0E0,0E0,0E0,0E0,0E0,0E0,0E0,0E0,0E0,0E0,0E0,0E0,0E0,0E0,0E0,0E0,0E0],"parents":[2147483647,0,0,1,1,2,2,3,3,4,4,5,5,6,6,7,7,8,8,9,9,10,10,13,13,14,14,16,16,17,17,18,18,21,21,22,22,23,23,25,25,26,26,27,27,28,28,29,29,30,30,31,31,32,32,33,33,34,34,35,35,36,36],"right_children":[2,4,6,8,10,12,14,16,18,20,22,-1,-1,24,26,-1,28,30,32,-1,-1,34,36,38,-1,40,42,44,46,48,50,52,54,56,58,60,62,-1,-1,-1,-1,-1,-1,-1,-1,-1,-1,-1,-1,-1,-1,-1,-1,-1,-1,-1,-1,-1,-1,-1,-1,-1,-1],"split_conditions":[1.3335645E-2,-1.6564257E-3,1.5172772E-2,-3.6543123E-2,-7.220588E-2,3.3299606E-2,1.9638164E-2,-2.3756078E-2,2.2143621E-2,1.2260312E-2,3.800177E-3,-2.775666E-2,5.2730955E-2,1.590369E-2,8.789886E-3,-2.4302194E-2,8.266812E-3,2.1138446E-2,-1.1337902E-2,8.142549E-3,8.2704805E-2,4.8974898E-2,9.577889E-4,3.941534E-2,8.590677E-2,1.1783099E-2,7.6925685E-3,1.2800798E-2,-5.4761316E-3,4.1493126E-3,2.6601672E-2,9.084365E-3,1.4616938E-2,-1.0520575E-1,2.381093E-2,-5.6405686E-2,5.422042E-2,3.1743344E-2,-2.6037646E-2,3.1788334E-2,-2.0857198E-2,3.549571E-3,1.0766629E-1,2.866613E-3,1.07627586E-1,-1.5786296E-2,7.120208E-3,8.4066056E-2,4.2475313E-3,-2.6972428E-2,4.1792866E-2,8.360267E-3,1.0105824E-1,5.9595536E-2,-1.0646485E-2,5.0775718E-2,-2.6134316E-2,7.722937E-2,-1.8136065E-2,5.6214064E-2,-2.7453134E-2,9.9804595E-2,-2.0133397E-2],"split_indices":[3388,7607,3752,7565,1599,4790,402,50,1143,583,7934,0,0,132,819,0,6578,5403,2781,0,0,18,476,6747,0,1021,3284,4826,110,260,566,558,8259,2700,126,7725,5637,0,0,0,0,0,0,0,0,0,0,0,0,0,0,0,0,0,0,0,0,0,0,0,0,0,0],"split_type":[0,0,0,0,0,0,0,0,0,0,0,0,0,0,0,0,0,0,0,0,0,0,0,0,0,0,0,0,0,0,0,0,0,0,0,0,0,0,0,0,0,0,0,0,0,0,0,0,0,0,0,0,0,0,0,0,0,0,0,0,0,0,0],"sum_hessian":[3.2837216E2,2.7714716E2,5.1224983E1,1.01985405E2,1.7516176E2,1.5067406E1,3.6157578E1,1.892549E1,8.305991E1,2.9928887E0,1.7216888E2,1.3905635E1,1.1617702E0,1.0899428E1,2.5258148E1,4.5009704E0,1.442452E1,5.13725E1,3.1687412E1,1.0794313E0,1.9134574E0,1.5237215E2,1.9796736E1,8.221962E0,2.6774664E0,3.4639077E0,2.179424E1,1.21721525E1,2.2523665E0,3.2085392E0,4.8163963E1,6.353209E0,2.5334204E1,1.4877736E2,3.5947788E0,1.30862875E1,6.7104483E0,1.0947694E0,7.127193E0,1.0932184E0,2.3706894E0,1.3871756E0,2.0407064E1,1.4235816E0,1.0748571E1,1.1103125E0,1.1420542E0,1.8824464E0,1.3260927E0,4.599205E1,2.1719112E0,1.0692697E0,5.2839394E0,6.546031E0,1.8788174E1,1.2203135E0,1.4755705E2,2.0476756E0,1.5471032E0,1.085664E0,1.2000624E1,4.606621E0,2.103827E0],"tree_param":{"num_deleted":"0","num_feature":"8964","num_nodes":"63","size_leaf_vector":"0"}},{"base_weights":[9.88622E-3,-1.5335867E-1,1.4931214E0,-3.3782038E-1,6.005684E-1,-2.4792023E-2,1.8728007E0,1.532563E0,-4.0277618E-1,1.4555247E0,-7.438566E-2,2.0574205E0,-1.9653054E-2,9.724122E-2,-1.7167527E-2,1.2527195E0,-4.6356085E-1,1.8765913E0,-2.4248855E-2,1.6855382E0,-4.4209015E-1,1.071037E-1,2.0107253E-2,9.7436726E-2,-2.0778304E-2,-5.0337535E-1,9.4583184E-1,-1.6986426E-2,2.0372775E0,2.6369834E-2,9.3346335E-2,4.524646E-2,-2.8543223E-2,7.3213585E-2,-2.643668E-2,9.0827145E-2,-2.0908862E-2,1.06555395E-1,2.216631E-2],"categories":[],"categories_nodes":[],"categories_segments":[],"categories_sizes":[],"default_left":[0,0,0,0,0,0,0,0,0,0,0,0,0,0,0,0,0,0,0,0,0,0,0,0,0,0,0,0,0,0,0,0,0,0,0,0,0,0,0],"id":19,"left_children":[1,3,5,7,9,-1,11,13,15,17,19,21,-1,-1,-1,23,25,27,-1,29,31,-1,-1,-1,-1,33,35,-1,37,-1,-1,-1,-1,-1,-1,-1,-1,-1,-1],"loss_changes":[8.106901E1,4.2156887E1,2.5996841E1,3.0141493E1,3.4535973E1,0E0,1.2556808E1,7.1364784E0,2.4293747E1,2.2455982E1,2.293631E1,2.79982E0,0E0,0E0,0E0,1.0814255E1,1.3272003E1,8.481827E0,0E0,3.0401802E-1,5.5742717E0,0E0,0E0,0E0,0E0,1.1872139E1,8.6126175E0,0E0,2.1268158E0,0E0,0E0,0E0,0E0,0E0,0E0,0E0,0E0,0E0,0E0],"parents":[2147483647,0,0,1,1,2,2,3,3,4,4,6,6,7,7,8,8,9,9,10,10,11,11,15,15,16,16,17,17,19,19,20,20,25,25,26,26,28,28],"right_children":[2,4,6,8,10,-1,12,14,16,18,20,22,-1,-1,-1,24,26,28,-1,30,32,-1,-1,-1,-1,34,36,-1,38,-1,-1,-1,-1,-1,-1,-1,-1,-1,-1],"split_conditions":[1.821449E-2,1.4717802E-2,7.7692643E-3,-8.053281E-2,-2.2186251E-2,-2.4792023E-2,8.6510886E-4,-4.330569E-2,-8.582912E-2,1.6374413E-2,-5.5199827E-4,3.431495E-2,-1.9653054E-2,9.724122E-2,-1.7167527E-2,2.279418E-3,1.9792482E-2,8.704067E-3,-2.4248855E-2,6.018547E-3,-3.562776E-2,1.071037E-1,2.0107253E-2,9.7436726E-2,-2.0778304E-2,-6.974557E-2,-1.4372083E-2,-1.6986426E-2,2.1961963E-2,2.6369834E-2,9.3346335E-2,4.524646E-2,-2.8543223E-2,7.3213585E-2,-2.643668E-2,9.0827145E-2,-2.0908862E-2,1.06555395E-1,2.216631E-2],"split_indices":[549,858,384,49,1629,0,1729,23,2872,7563,7542,1872,0,0,0,61,839,849,0,56,5975,0,0,0,0,163,16,0,4446,0,0,0,0,0,0,0,0,0,0],"split_type":[0,0,0,0,0,0,0,0,0,0,0,0,0,0,0,0,0,0,0,0,0,0,0,0,0,0,0,0,0,0,0,0,0,0,0,0,0,0,0],"sum_hessian":[3.3286957E2,3.0067398E2,3.219558E1,2.4201309E2,5.86609E1,5.1117215E0,2.7083858E1,7.364369E0,2.3464873E2,2.5369356E1,3.3291542E1,2.5128416E1,1.9554427E0,6.0074115E0,1.3569576E0,7.6159506E0,2.2703278E2,2.0873075E1,4.496282E0,5.1341753E0,2.8157368E1,2.3626053E1,1.5023636E0,5.2553096E0,2.3606412E0,2.2142062E2,5.612159E0,1.3357027E0,1.9537373E1,1.2243592E0,3.909816E0,1.9310222E0,2.6226345E1,2.095294E0,2.1932532E2,3.2229996E0,2.3891594E0,1.8132952E1,1.4044207E0],"tree_param":{"num_deleted":"0","num_feature":"8964","num_nodes":"39","size_leaf_vector":"0"}},{"base_weights":[-1.1906308E-2,-2.5160894E-1,5.8435875E-1,1.0845703E0,-2.994557E-1,1.4350317E0,3.158101E-1,-2.1603355E-2,9.192413E-2,-3.2243285E-1,7.736691E-2,1.6747733E0,-2.1193242E-2,1.5571691E0,1.2575601E-1,-3.6221108E-1,8.0233645E-1,1.8454217E0,-1.7624214E-2,9.9554405E-2,-1.8763369E-2,1.6147854E0,-1.1740026E-2,6.810365E-2,-3.8645655E-1,-2.2449045E-2,1.6592568E0,2.018936E0,-1.674978E-2,8.989993E-2,2.7074417E-2,-1.8086576E-1,1.3816152E0,-2.1940012E-2,1.7418625E-2,8.508916E-3,1.00461654E-1,6.5698437E-3,1.0712897E-1,-1.6363295E-2,4.228149E-2,-1.772759E-2,9.675711E-2],"categories":[],"categories_nodes":[],"categories_segments":[],"categories_sizes":[],"default_left":[0,0,0,0,0,0,0,0,0,0,0,0,0,0,0,0,0,0,0,0,0,0,0,0,0,0,0,0,0,0,0,0,0,0,0,0,0,0,0,0,0,0,0],"id":20,"left_children":[1,3,5,7,9,11,13,-1,-1,15,-1,17,-1,19,21,23,25,27,-1,-1,-1,29,31,-1,33,-1,35,37,-1,-1,-1,39,41,-1,-1,-1,-1,-1,-1,-1,-1,-1,-1],"loss_changes":[4.8627254E1,1.5836961E1,2.1834393E1,1.0632798E1,1.0472244E1,1.1016502E1,1.7601063E1,0E0,0E0,1.07140465E1,0E0,7.8070946E0,0E0,9.071907E0,1.3635215E1,9.962093E0,9.611412E0,7.9559097E0,0E0,0E0,0E0,1.3335514E-1,1.4831406E1,0E0,8.743778E0,0E0,2.3267298E0,3.9112167E0,0E0,0E0,0E0,8.701963E0,7.2339478E0,0E0,0E0,0E0,0E0,0E0,0E0,0E0,0E0,0E0,0E0],"parents":[2147483647,0,0,1,1,2,2,3,3,4,4,5,5,6,6,9,9,11,11,13,13,14,14,15,15,16,16,17,17,21,21,22,22,24,24,26,26,27,27,31,31,32,32],"right_children":[2,4,6,8,10,12,14,-1,-1,16,-1,18,-1,20,22,24,26,28,-1,-1,-1,30,32,-1,34,-1,36,38,-1,-1,-1,40,42,-1,-1,-1,-1,-1,-1,-1,-1,-1,-1],"split_conditions":[1.7012173E-2,-1.5062024E-2,-1.3123839E-2,1.2637919E-2,1.0268944E-1,1.34331845E-2,-2.7562123E-2,-2.1603355E-2,9.192413E-2,4.662524E-2,7.736691E-2,7.978071E-2,-2.1193242E-2,4.2169802E-2,-7.311113E-2,-8.540493E-2,6.3525625E-2,1.02251604E-1,-1.7624214E-2,9.9554405E-2,-1.8763369E-2,-1.265886E-3,1.6556999E-2,6.810365E-2,8.4625445E-2,-2.2449045E-2,-3.555864E-2,-3.0166352E-2,-1.674978E-2,8.989993E-2,2.7074417E-2,3.573279E-2,4.1957684E-2,-2.1940012E-2,1.7418625E-2,8.508916E-3,1.00461654E-1,6.5698437E-3,1.0712897E-1,-1.6363295E-2,4.228149E-2,-1.772759E-2,9.675711E-2],"split_indices":[7844,2678,1134,274,1214,570,6030,0,0,1587,0,6880,0,118,271,2699,413,296,0,0,0,1261,706,0,1302,0,7,3866,0,0,0,7818,1502,0,0,0,0,0,0,0,0,0,0],"split_type":[0,0,0,0,0,0,0,0,0,0,0,0,0,0,0,0,0,0,0,0,0,0,0,0,0,0,0,0,0,0,0,0,0,0,0,0,0,0,0,0,0,0,0],"sum_hessian":[3.3819733E2,2.4163603E2,9.65613E1,7.60447E0,2.3403156E2,2.212692E1,7.443439E1,2.6667325E0,4.937737E0,2.3197087E2,2.060686E0,1.9686947E1,2.4399736E0,8.927854E0,6.550653E1,2.247021E2,7.268777E0,1.8241158E1,1.4457899E0,7.265966E0,1.6618876E0,4.629254E0,6.0877277E1,2.3506474E0,2.2235146E2,3.147986E0,4.120791E0,1.6965157E1,1.2759998E0,3.3774996E0,1.2517543E0,5.5063812E1,5.8134627E0,2.0794208E2,1.4409372E1,1.0670335E0,3.0537574E0,1.1697956E0,1.57953615E1,4.8786938E1,6.2768745E0,1.4922884E0,4.3211746E0],"tree_param":{"num_deleted":"0","num_feature":"8964","num_nodes":"43","size_leaf_vector":"0"}},{"base_weights":[-5.5471767E-2,-9.924332E-2,1.8254647E0,9.252186E-1,-1.8215944E-1,9.956408E-2,2.723727E-2,1.7216158E0,-1.1536883E-1,-2.9190487E-1,5.73624E-1,1.0913497E-1,-2.0750847E-2,-2.6619926E-2,6.642424E-2,-3.4355357E-1,1.1292094E0,-1.4533702E-1,1.3773901E0,1.5172769E0,-3.7556255E-1,-2.2245849E-2,9.547632E-2,7.275311E-2,-4.057084E-1,1.967022E0,-1.635531E-1,9.330238E-2,9.061749E-3,7.10915E-2,-2.0414775E-2,-2.795354E-2,3.646674E-2,9.444193E-3,1.0485061E-1,-2.3750084E-2,3.463954E-2],"categories":[],"categories_nodes":[],"categories_segments":[],"categories_sizes":[],"default_left":[0,0,0,0,0,0,0,0,0,0,0,0,0,0,0,0,0,0,0,0,0,0,0,0,0,0,0,0,0,0,0,0,0,0,0,0,0],"id":21,"left_children":[1,3,5,7,9,-1,-1,11,13,15,17,-1,-1,-1,-1,19,21,23,25,27,29,-1,-1,-1,31,33,35,-1,-1,-1,-1,-1,-1,-1,-1,-1,-1],"loss_changes":[2.749963E1,2.779356E1,5.287132E-1,2.051485E1,2.5191404E1,0E0,0E0,1.4648724E1,7.671145E0,1.977302E1,2.2501177E1,0E0,0E0,0E0,0E0,1.5794874E1,1.25128145E1,9.455509E0,1.696384E1,1.7684412E0,1.5412006E1,0E0,0E0,0E0,3.7290406E0,2.68367E0,1.9272583E0,0E0,0E0,0E0,0E0,0E0,0E0,0E0,0E0,0E0,0E0],"parents":[2147483647,0,0,1,1,2,2,3,3,4,4,7,7,8,8,9,9,10,10,15,15,16,16,17,17,18,18,19,19,20,20,24,24,25,25,26,26],"right_children":[2,4,6,8,10,-1,-1,12,14,16,18,-1,-1,-1,-1,20,22,24,26,28,30,-1,-1,-1,32,34,36,-1,-1,-1,-1,-1,-1,-1,-1,-1,-1],"split_conditions":[7.0909224E-2,-9.460821E-2,1.3924069E-2,1.3724125E-2,1.4699954E-2,9.956408E-2,2.723727E-2,1.7317375E-2,3.629269E-2,5.524268E-2,-3.7780434E-2,1.0913497E-1,-2.0750847E-2,-2.6619926E-2,6.642424E-2,-8.8587254E-2,2.6567185E-2,6.884554E-3,1.5469491E-2,1.36054605E-2,-9.518595E-2,-2.2245849E-2,9.547632E-2,7.275311E-2,2.2980692E-2,1.991839E-2,4.0705428E-3,9.330238E-2,9.061749E-3,7.10915E-2,-2.0414775E-2,-2.795354E-2,3.646674E-2,9.444193E-3,1.0485061E-1,-2.3750084E-2,3.463954E-2],"split_indices":[492,1666,8637,8847,593,0,0,354,5490,341,1806,0,0,0,0,1639,1172,8625,397,790,1984,0,0,0,8256,5270,1546,0,0,0,0,0,0,0,0,0,0],"split_type":[0,0,0,0,0,0,0,0,0,0,0,0,0,0,0,0,0,0,0,0,0,0,0,0,0,0,0,0,0,0,0,0,0,0,0,0,0],"sum_hessian":[3.3081055E2,3.2421298E2,6.597571E0,2.3515167E1,3.006978E2,5.350073E0,1.2474985E0,1.2949786E1,1.0565381E1,2.6310654E2,3.759127E1,1.063352E1,2.3162658E0,8.687444E0,1.8779374E0,2.5461124E2,8.495291E0,2.027482E1,1.7316452E1,3.5209422E0,2.510903E2,2.9579897E0,5.5373006E0,2.1949468E0,1.8079872E1,1.232418E1,4.992272E0,2.4774988E0,1.0434434E0,3.731892E0,2.473584E2,1.6374819E1,1.705054E0,1.0066931E0,1.1317487E1,3.9873898E0,1.0048821E0],"tree_param":{"num_deleted":"0","num_feature":"8964","num_nodes":"37","size_leaf_vector":"0"}},{"base_weights":[-1.1510386E-2,9.3827926E-2,-5.0672624E-2,-1.7012003E-1,5.1841986E-1,1.2054303E0,-2.2437604E-1,8.530514E-1,-2.3104718E-1,-2.0967256E-2,1.7559414E0,-2.5945088E-1,1.1262851E0,4.7169518E-1,1.7332228E0,-4.9638206E-1,6.438476E-2,1.00669734E-1,6.96912E-3,8.811055E-1,-3.0457488E-1,9.218882E-2,-1.967764E-2,1.4375148E0,-1.3145708E-1,-1.849323E-2,1.062242E-1,9.601098E-3,-2.7751407E-2,7.418513E-2,-2.1942455E-2,6.8356625E-5,-2.3767417E-2,-1.8734165E-2,9.045402E-2,6.697902E-2,-2.1647552E-2],"categories":[],"categories_nodes":[],"categories_segments":[],"categories_sizes":[],"default_left":[0,0,0,0,0,0,0,0,0,0,0,0,0,0,0,0,0,0,0,0,0,0,0,0,0,0,0,0,0,0,0,0,0,0,0,0,0],"id":22,"left_children":[1,-1,3,5,7,9,11,13,15,-1,17,19,21,23,25,27,-1,-1,-1,29,31,-1,-1,33,35,-1,-1,-1,-1,-1,-1,-1,-1,-1,-1,-1,-1],"loss_changes":[2.416395E1,0E0,2.1832113E1,2.005799E1,1.4176048E1,9.875767E0,1.2416096E1,1.218811E1,7.889449E0,0E0,2.975935E0,1.3147959E1,7.993433E0,1.6737413E1,1.0116226E1,7.540586E-1,0E0,0E0,0E0,8.430815E0,1.2616758E1,0E0,0E0,8.087627E0,8.741957E0,0E0,0E0,0E0,0E0,0E0,0E0,0E0,0E0,0E0,0E0,0E0,0E0],"parents":[2147483647,0,0,2,2,3,3,4,4,5,5,6,6,7,7,8,8,10,10,11,11,12,12,13,13,14,14,15,15,19,19,20,20,23,23,24,24],"right_children":[2,-1,4,6,8,10,12,14,16,-1,18,20,22,24,26,28,-1,-1,-1,30,32,-1,-1,34,36,-1,-1,-1,-1,-1,-1,-1,-1,-1,-1,-1,-1],"split_conditions":[-7.798625E-2,9.3827926E-2,-1.2106105E-2,3.2487497E-2,5.463313E-2,-3.7414588E-2,7.919954E-2,7.200751E-2,1.3175601E-1,-2.0967256E-2,-7.4288016E-3,-9.655197E-3,4.298414E-2,-3.489783E-2,-2.4567263E-2,2.463575E-2,6.438476E-2,1.00669734E-1,6.96912E-3,9.028518E-3,-1.265331E-2,9.218882E-2,-1.967764E-2,-4.0971212E-2,2.9706553E-2,-1.849323E-2,1.062242E-1,9.601098E-3,-2.7751407E-2,7.418513E-2,-2.1942455E-2,6.8356625E-5,-2.3767417E-2,-1.8734165E-2,9.045402E-2,6.697902E-2,-2.1647552E-2],"split_indices":[2593,0,7588,6728,5288,3961,2044,1266,5216,0,1842,7792,2444,2589,3919,2132,0,0,0,850,1209,0,0,1531,6944,0,0,0,0,0,0,0,0,0,0,0,0],"split_type":[0,0,0,0,0,0,0,0,0,0,0,0,0,0,0,0,0,0,0,0,0,0,0,0,0,0,0,0,0,0,0,0,0,0,0,0,0],"sum_hessian":[3.2451437E2,5.6408973E0,3.1887347E2,2.6413498E2,5.47385E1,9.217847E0,2.5491714E2,3.7746674E1,1.6991825E1,2.3931067E0,6.82474E0,2.492523E2,5.6648393E0,2.7407572E1,1.0339102E1,1.5037782E1,1.9540429E0,5.6753945E0,1.1493452E0,8.780845E0,2.4047147E2,3.7033887E0,1.9614508E0,1.0004371E1,1.74032E1,1.6303598E0,8.708742E0,1.0019828E0,1.4035799E1,5.943439E0,2.8374062E0,8.649929E1,1.5397217E2,1.7008076E0,8.303563E0,2.3744986E0,1.5028702E1],"tree_param":{"num_deleted":"0","num_feature":"8964","num_nodes":"37","size_leaf_vector":"0"}},{"base_weights":[-7.893305E-4,5.820428E-1,-2.7270567E-1,1.0236976E0,-1.0426005E-1,-4.131E-1,3.171885E-1,3.8609672E-1,1.4827536E0,1.0641834E0,-2.6949397E-1,1.0953578E0,-4.6248388E-1,1.3039458E0,-1.0546853E-1,-9.1530405E-2,1.4392573E0,4.019028E-1,1.7680892E0,8.758727E-2,-1.8409796E-2,5.843077E-2,-3.6298767E-1,-1.9331502E-2,9.110572E-2,-4.8356262E-1,6.880484E-2,-2.2878971E-2,1.9116639E0,1.2338504E0,-4.0219694E-1,-3.7397417E-1,1.060577E0,9.836951E-2,-1.930525E-2,1.2085264E0,-2.687589E-1,1.9733698E0,1.3996749E-1,3.7106222E-1,-5.3109974E-1,7.622659E-1,-5.1492786E-1,5.193522E-4,1.0653166E-1,-1.8277584E-2,9.417244E-2,4.488309E-2,-4.9487963E-1,4.10051E-2,-2.59426E-2,8.1544265E-2,-1.5767917E-2,8.226564E-2,-8.1836956E-4,-2.3634618E-2,1.7454857E-2,-2.8863875E-3,1.0421357E-1,4.420502E-2,-2.0562472E-2,6.3660435E-2,-1.7069528E-2,1.798704E-2,-2.8683493E-2,8.039271E-2,-1.9245032E-2,5.9120893E-2,-2.6846906E-2,-2.8488342E-2,2.8912997E-2],"categories":[],"categories_nodes":[],"categories_segments":[],"categories_sizes":[],"default_left":[0,0,0,0,0,0,0,0,0,0,0,0,0,0,0,0,0,0,0,0,0,0,0,0,0,0,0,0,0,0,0,0,0,0,0,0,0,0,0,0,0,0,0,0,0,0,0,0,0,0,0,0,0,0,0,0,0,0,0,0,0,0,0,0,0,0,0,0,0,0,0],"id":23,"left_children":[1,3,5,7,9,11,13,15,17,19,21,23,25,27,29,31,33,35,37,-1,-1,-1,39,-1,-1,41,-1,-1,43,45,47,49,51,-1,-1,53,55,57,59,61,63,65,67,-1,-1,-1,-1,-1,69,-1,-1,-1,-1,-1,-1,-1,-1,-1,-1,-1,-1,-1,-1,-1,-1,-1,-1,-1,-1,-1,-1],"loss_changes":[5.348744E1,3.2650692E1,1.918994E1,1.8575508E1,8.57851E0,1.4386471E1,1.8824783E1,1.4586712E1,1.091111E1,6.0842905E0,5.5905275E0,7.385782E0,7.6847267E0,1.5339111E1,1.3330926E1,7.135946E0,9.460972E0,5.2825527E0,9.589584E0,0E0,0E0,0E0,4.7434654E0,0E0,0E0,7.418602E0,0E0,0E0,4.2405853E0,7.0295715E0,3.7202048E0,3.430818E0,3.9186168E0,0E0,0E0,2.3502216E0,8.98605E-1,6.0077744E0,2.1607695E0,5.225593E0,1.3587818E0,5.293309E0,7.2096405E0,0E0,0E0,0E0,0E0,0E0,2.4211206E0,0E0,0E0,0E0,0E0,0E0,0E0,0E0,0E0,0E0,0E0,0E0,0E0,0E0,0E0,0E0,0E0,0E0,0E0,0E0,0E0,0E0,0E0],"parents":[2147483647,0,0,1,1,2,2,3,3,4,4,5,5,6,6,7,7,8,8,9,9,10,10,11,11,12,12,13,13,14,14,15,15,16,16,17,17,18,18,22,22,25,25,28,28,29,29,30,30,31,31,32,32,35,35,36,36,37,37,38,38,39,39,40,40,41,41,42,42,48,48],"right_children":[2,4,6,8,10,12,14,16,18,20,22,24,26,28,30,32,34,36,38,-1,-1,-1,40,-1,-1,42,-1,-1,44,46,48,50,52,-1,-1,54,56,58,60,62,64,66,68,-1,-1,-1,-1,-1,70,-1,-1,-1,-1,-1,-1,-1,-1,-1,-1,-1,-1,-1,-1,-1,-1,-1,-1,-1,-1,-1,-1],"split_conditions":[8.541485E-3,1.1034876E-2,7.1273446E-3,2.274885E-2,7.154006E-2,-4.002867E-2,1.0692816E-2,1.0108517E-2,5.4355697E-3,1.178127E-2,5.9375823E-3,-4.2009517E-3,7.978227E-2,-5.4747842E-2,-2.1662949E-2,1.6744753E-2,8.6815745E-2,6.1707173E-2,2.436476E-2,8.758727E-2,-1.8409796E-2,5.843077E-2,-1.0818731E-3,-1.9331502E-2,9.110572E-2,-5.1453754E-2,6.880484E-2,-2.2878971E-2,1.3717656E-2,-1.4664218E-3,-5.961334E-3,1.7761698E-2,9.240866E-3,9.836951E-2,-1.930525E-2,1.1454562E-2,-3.5705848E-3,2.3189157E-2,7.1100076E-3,6.132315E-3,1.9750945E-2,1.9387953E-2,-6.75527E-2,5.193522E-4,1.0653166E-1,-1.8277584E-2,9.417244E-2,4.488309E-2,1.5521543E-2,4.10051E-2,-2.59426E-2,8.1544265E-2,-1.5767917E-2,8.226564E-2,-8.1836956E-4,-2.3634618E-2,1.7454857E-2,-2.8863875E-3,1.0421357E-1,4.420502E-2,-2.0562472E-2,6.3660435E-2,-1.7069528E-2,1.798704E-2,-2.8683493E-2,8.039271E-2,-1.9245032E-2,5.9120893E-2,-2.6846906E-2,-2.8488342E-2,2.8912997E-2],"split_indices":[915,967,3964,2947,7151,1280,1173,1136,8800,5673,3480,228,2046,502,1135,8552,7342,5609,5652,0,0,0,7984,0,0,1517,0,0,8194,53,1416,2551,693,0,0,534,39,7089,3227,6365,2345,4600,2892,0,0,0,0,0,3487,0,0,0,0,0,0,0,0,0,0,0,0,0,0,0,0,0,0,0,0,0,0],"split_type":[0,0,0,0,0,0,0,0,0,0,0,0,0,0,0,0,0,0,0,0,0,0,0,0,0,0,0,0,0,0,0,0,0,0,0,0,0,0,0,0,0,0,0,0,0,0,0,0,0,0,0,0,0,0,0,0,0,0,0,0,0,0,0,0,0,0,0,0,0,0,0],"sum_hessian":[3.3549783E2,1.0636721E2,2.2913062E2,6.441973E1,4.194748E1,1.8532349E2,4.3807137E1,2.7736496E1,3.668324E1,4.5229807E0,3.7424496E1,5.2033634E0,1.8012012E2,1.2511655E1,3.1295483E1,1.9710514E1,8.025981E0,8.164532E0,2.8518705E1,2.9053907E0,1.6175898E0,1.5825466E0,3.584195E1,1.8660854E0,3.3372784E0,1.7880714E2,1.3129745E0,3.2726476E0,9.239007E0,5.1032367E0,2.6192245E1,1.6372204E1,3.3383114E0,6.164574E0,1.8614074E0,3.3424644E0,4.822067E0,2.5137241E1,3.3814652E0,6.453957E0,2.9387993E1,3.8188636E0,1.7498828E2,1.0623364E0,8.17667E0,1.6003114E0,3.5029252E0,1.1651995E0,2.5027046E1,1.2672163E0,1.5104987E1,2.2290895E0,1.1092218E0,2.210862E0,1.1316025E0,3.8020766E0,1.0199903E0,1.3262999E0,2.3810942E1,1.1819488E0,2.1995163E0,2.5005486E0,3.9534087E0,1.0005012E0,2.8387491E1,1.9672188E0,1.851645E0,1.5651977E0,1.7342308E2,2.383297E1,1.1940769E0],"tree_param":{"num_deleted":"0","num_feature":"8964","num_nodes":"71","size_leaf_vector":"0"}},{"base_weights":[1.4293127E-2,1.0940143E0,-1.03273E-1,1.8660927E-1,1.6458085E0,-2.848405E-1,3.563726E-1,6.8197526E-2,-3.3882734E-1,-8.594893E-2,1.8523968E0,-3.471942E-1,9.190613E-1,-6.429597E-2,1.1079502E0,-2.6412034E-2,3.310152E-2,-1.5542944E-2,9.572553E-3,-1.503964E-2,1.9988545E0,-4.193744E-1,4.1747934E-1,1.5219451E0,-2.2365412E-2,6.284997E-1,-3.3385834E-1,-3.9220273E-2,1.4672711E0,1.0284948E-1,3.0668063E-2,8.028688E-1,-4.5324954E-1,-3.7184083E-1,1.5561514E0,-1.5761042E-2,9.4287954E-2,-6.60319E-2,1.6816481E0,-4.928445E-1,7.1587867E-1,-2.5328353E-2,6.9087E-2,-2.186072E-1,1.7486168E0,-2.0006968E-2,8.517372E-2,3.4544744E-2,-2.4168525E-2,3.410114E-2,-2.6874825E-2,-1.4759372E-2,9.418671E-2,7.289597E-2,-2.6280025E-2,9.307029E-2,2.662614E-2,2.4717411E-2,-2.8720839E-2,-2.0655852E-2,8.01466E-2,-2.0158907E-2,8.542158E-3,-1.8810257E-2,9.85903E-2],"categories":[],"categories_nodes":[],"categories_segments":[],"categories_sizes":[],"default_left":[0,0,0,0,0,0,0,0,0,0,0,0,0,0,0,0,0,0,0,0,0,0,0,0,0,0,0,0,0,0,0,0,0,0,0,0,0,0,0,0,0,0,0,0,0,0,0,0,0,0,0,0,0,0,0,0,0,0,0,0,0,0,0,0,0],"id":24,"left_children":[1,3,5,7,9,11,13,-1,15,17,19,21,23,25,27,-1,-1,-1,-1,-1,29,31,33,35,-1,37,39,41,43,-1,-1,45,47,49,51,-1,-1,53,55,57,59,-1,-1,61,63,-1,-1,-1,-1,-1,-1,-1,-1,-1,-1,-1,-1,-1,-1,-1,-1,-1,-1,-1,-1],"loss_changes":[4.184858E1,1.5901039E1,2.4922758E1,8.7324E0,7.315151E0,1.6365103E1,2.6838062E1,0E0,2.2539248E0,2.521416E-1,6.250618E0,1.1432163E1,9.577391E0,1.0523173E1,1.2603329E1,0E0,0E0,0E0,0E0,0E0,9.990692E-2,8.100643E0,1.6839788E1,5.7548637E0,0E0,1.1679396E1,7.096849E0,6.1675954E0,1.1387592E1,0E0,0E0,6.532322E0,6.6220627E0,2.372943E0,5.165169E0,0E0,0E0,8.114991E0,3.148632E-1,3.157692E0,6.393515E0,0E0,0E0,3.7130108E-1,1.022435E1,0E0,0E0,0E0,0E0,0E0,0E0,0E0,0E0,0E0,0E0,0E0,0E0,0E0,0E0,0E0,0E0,0E0,0E0,0E0,0E0],"parents":[2147483647,0,0,1,1,2,2,3,3,4,4,5,5,6,6,8,8,9,9,10,10,11,11,12,12,13,13,14,14,20,20,21,21,22,22,23,23,25,25,26,26,27,27,28,28,31,31,32,32,33,33,34,34,37,37,38,38,39,39,40,40,43,43,44,44],"right_children":[2,4,6,8,10,12,14,-1,16,18,20,22,24,26,28,-1,-1,-1,-1,-1,30,32,34,36,-1,38,40,42,44,-1,-1,46,48,50,52,-1,-1,54,56,58,60,-1,-1,62,64,-1,-1,-1,-1,-1,-1,-1,-1,-1,-1,-1,-1,-1,-1,-1,-1,-1,-1,-1,-1],"split_conditions":[-4.884456E-2,-4.1246805E-3,3.175699E-2,6.8955747E-3,-7.000027E-2,2.9590983E-2,-1.5440117E-2,6.8197526E-2,1.9783363E-2,-3.5294925E-3,6.7981575E-3,1.7264804E-2,-2.9313525E-2,-2.5860861E-2,1.8083252E-2,-2.6412034E-2,3.310152E-2,-1.5542944E-2,9.572553E-3,-1.503964E-2,4.5527462E-2,-1.04281195E-1,5.9406914E-2,2.300007E-2,-2.2365412E-2,4.5931168E-2,1.54214995E-2,6.301984E-2,1.4313965E-2,1.0284948E-1,3.0668063E-2,7.1174335E-3,-1.1477774E-1,-2.505444E-6,4.5234025E-3,-1.5761042E-2,9.4287954E-2,-8.597243E-2,2.8005693E-2,5.8830727E-2,1.4485731E-2,-2.5328353E-2,6.9087E-2,1.0258632E-2,3.098702E-2,-2.0006968E-2,8.517372E-2,3.4544744E-2,-2.4168525E-2,3.410114E-2,-2.6874825E-2,-1.4759372E-2,9.418671E-2,7.289597E-2,-2.6280025E-2,9.307029E-2,2.662614E-2,2.4717411E-2,-2.8720839E-2,-2.0655852E-2,8.01466E-2,-2.0158907E-2,8.542158E-3,-1.8810257E-2,9.85903E-2],"split_indices":[8081,4058,3794,3641,6465,1554,3711,0,4904,120,8271,914,1716,7738,2970,0,0,0,0,0,1442,2622,1184,2340,0,2261,3128,7351,4400,0,0,544,2705,4192,402,0,0,5951,181,5443,744,0,0,721,2090,0,0,0,0,0,0,0,0,0,0,0,0,0,0,0,0,0,0,0,0],"split_type":[0,0,0,0,0,0,0,0,0,0,0,0,0,0,0,0,0,0,0,0,0,0,0,0,0,0,0,0,0,0,0,0,0,0,0,0,0,0,0,0,0,0,0,0,0,0,0,0,0,0,0,0,0,0,0,0,0,0,0,0,0,0,0,0,0],"sum_hessian":[3.2778564E2,3.1370949E1,2.964147E2,1.23689165E1,1.9002033E1,2.1275378E2,8.366091E1,3.3243136E0,9.044602E0,2.08747E0,1.6914564E1,2.029538E2,9.799978E0,5.4224915E1,2.9435995E1,8.00236E0,1.0422423E0,1.0861926E0,1.0012776E0,1.0101252E0,1.5904438E1,1.8586127E2,1.709253E1,6.720728E0,3.0792503E0,1.4815753E1,3.940916E1,7.233408E0,2.2202587E1,1.4798818E1,1.10562E0,4.4001317E0,1.8146114E2,1.0492582E1,6.599947E0,1.1329899E0,5.587738E0,9.492758E0,5.3229947E0,3.468631E1,4.7228503E0,5.9274144E0,1.3059936E0,3.2072313E0,1.8995356E1,2.1217055E0,2.278426E0,4.0919256E0,1.7736922E2,1.0018611E0,9.490721E0,1.0071149E0,5.592832E0,1.6960876E0,7.7966704E0,4.066955E0,1.2560396E0,2.2611759E0,3.2425137E1,2.3131166E0,2.4097338E0,2.1520622E0,1.055169E0,1.7404264E0,1.7254929E1],"tree_param":{"num_deleted":"0","num_feature":"8964","num_nodes":"65","size_leaf_vector":"0"}},{"base_weights":[2.2681623E-3,-2.6271385E-1,8.137658E-1,-4.192448E-1,5.2058136E-1,1.3781477E0,-2.7831824E-2,-4.778108E-1,1.3901851E0,-3.5375528E-2,1.4831096E0,1.6299683E0,-2.5103334E-2,-3.7193137E-1,1.3739474E0,7.092737E-2,-5.1300454E-1,-1.49276005E-2,8.657398E-2,-2.792177E-2,8.9023376E-1,-2.1542542E-2,1.9072361E0,1.7535534E0,-2.0743102E-2,-2.8352916E-2,8.127806E-1,-1.55289145E-2,8.665596E-2,5.320264E-2,-5.399525E-1,-2.308327E-2,8.185966E-2,2.7369985E-2,9.9717915E-2,2.6683784E-1,1.9067674E0,6.898775E-2,-1.6555227E-2,4.0637553E-2,-2.8391276E-2,6.136952E-2,-2.1571767E-2,9.894861E-2,1.4553176E-2],"categories":[],"categories_nodes":[],"categories_segments":[],"categories_sizes":[],"default_left":[0,0,0,0,0,0,0,0,0,0,0,0,0,0,0,0,0,0,0,0,0,0,0,0,0,0,0,0,0,0,0,0,0,0,0,0,0,0,0,0,0,0,0,0,0],"id":25,"left_children":[1,3,5,7,9,11,13,15,17,19,21,23,-1,25,27,-1,29,-1,-1,-1,31,-1,33,35,-1,-1,37,-1,-1,-1,39,-1,-1,-1,-1,41,43,-1,-1,-1,-1,-1,-1,-1,-1],"loss_changes":[7.332079E1,3.1735008E1,3.9904854E1,2.3425842E1,2.3201078E1,2.461554E1,1.7235126E1,1.4663052E1,4.5456533E0,1.4245553E1,1.3697338E1,1.198819E1,0E0,7.0782075E0,4.8017178E0,0E0,9.317776E0,0E0,0E0,0E0,1.1498835E1,0E0,4.6836853E-1,9.106323E0,0E0,0E0,3.3487167E0,0E0,0E0,0E0,8.113045E0,0E0,0E0,0E0,0E0,3.954544E0,3.8694E0,0E0,0E0,0E0,0E0,0E0,0E0,0E0,0E0],"parents":[2147483647,0,0,1,1,2,2,3,3,4,4,5,5,6,6,7,7,8,8,9,9,10,10,11,11,13,13,14,14,16,16,20,20,22,22,23,23,26,26,30,30,35,35,36,36],"right_children":[2,4,6,8,10,12,14,16,18,20,22,24,-1,26,28,-1,30,-1,-1,-1,32,-1,34,36,-1,-1,38,-1,-1,-1,40,-1,-1,-1,-1,42,44,-1,-1,-1,-1,-1,-1,-1,-1],"split_conditions":[1.4717802E-2,1.9180827E-2,1.29913315E-2,2.2660734E-2,4.1371748E-2,-1.1842584E-2,3.9398205E-2,-8.724408E-2,-1.6037235E-2,-1.6977733E-2,2.176591E-2,-3.4676548E-2,-2.5103334E-2,1.8987812E-2,1.9020084E-2,7.092737E-2,-2.0213136E-2,-1.49276005E-2,8.657398E-2,-2.792177E-2,1.7309729E-2,-2.1542542E-2,2.677676E-2,-6.687789E-2,-2.0743102E-2,-2.8352916E-2,-5.34985E-2,-1.55289145E-2,8.665596E-2,5.320264E-2,-9.946713E-2,-2.308327E-2,8.185966E-2,2.7369985E-2,9.9717915E-2,-5.8854986E-2,1.7434923E-2,6.898775E-2,-1.6555227E-2,4.0637553E-2,-2.8391276E-2,6.136952E-2,-2.1571767E-2,9.894861E-2,1.4553176E-2],"split_indices":[858,4237,2606,654,2447,4148,2710,2872,288,7432,3836,4235,0,573,164,0,5456,0,0,0,4877,0,2152,3,0,0,0,0,0,0,1973,0,0,0,0,11,8667,0,0,0,0,0,0,0,0],"split_type":[0,0,0,0,0,0,0,0,0,0,0,0,0,0,0,0,0,0,0,0,0,0,0,0,0,0,0,0,0,0,0,0,0,0,0,0,0,0,0,0,0,0,0,0,0],"sum_hessian":[3.3898154E2,2.5604898E2,8.293257E1,2.1379059E2,4.2258385E1,4.9260532E1,3.3672035E1,2.0780061E2,5.989973E0,2.739707E1,1.4861317E1,4.3559612E1,5.700922E0,2.7625404E1,6.0466304E0,3.0700305E0,2.0473058E2,1.0281055E0,4.9618673E0,1.7758476E1,9.638594E0,2.6929512E0,1.21683655E1,4.121133E1,2.3482795E0,2.4166445E1,3.4589603E0,1.0864484E0,4.960182E0,2.7929873E0,2.0193759E2,3.5661917E0,6.0724015E0,1.1711853E0,1.0997181E1,4.1063976E0,3.7104935E1,2.174804E0,1.2841563E0,3.5084867E0,1.9842911E2,1.4095936E0,2.696804E0,3.5302452E1,1.8024805E0],"tree_param":{"num_deleted":"0","num_feature":"8964","num_nodes":"45","size_leaf_vector":"0"}},{"base_weights":[-1.1218867E-2,-2.727636E-1,5.512584E-1,1.0685556E0,-3.1394514E-1,7.9758793E-1,-3.9005128E-1,8.470356E-2,-1.9389054E-2,-3.7534168E-1,6.958729E-1,1.9982563E-1,1.2242626E0,-2.8283877E-2,6.261343E-2,-4.0624747E-1,1.1332217E0,1.2906868E0,-2.3732627E-2,8.205023E-2,-4.103471E-2,1.3926117E0,-2.3765614E-2,-4.2482513E-1,6.2900975E-2,8.803969E-2,-1.6002592E-2,-2.0856768E-2,1.0054264E-1,-3.4481743E-1,1.2203201E0,1.6819599E0,2.4771652E-1,1.7946525E-2,-2.3416862E-2,-2.8409377E-2,4.0858373E-2,8.909382E-2,-1.7721286E-2,9.0749405E-2,-1.9709386E-2,6.561918E-2,-1.8535329E-2],"categories":[],"categories_nodes":[],"categories_segments":[],"categories_sizes":[],"default_left":[0,0,0,0,0,0,0,0,0,0,0,0,0,0,0,0,0,0,0,0,0,0,0,0,0,0,0,0,0,0,0,0,0,0,0,0,0,0,0,0,0,0,0],"id":26,"left_children":[1,3,5,7,9,11,13,-1,-1,15,17,19,21,-1,-1,23,25,27,-1,-1,29,31,-1,33,-1,-1,-1,-1,-1,35,37,39,41,-1,-1,-1,-1,-1,-1,-1,-1,-1,-1],"loss_changes":[4.78885E1,1.2607735E1,2.4269846E1,6.892542E0,1.3673347E1,2.0726727E1,7.0835905E0,0E0,0E0,9.998491E0,9.48917E0,1.2369824E1,1.43337555E1,0E0,0E0,6.7554054E0,4.549974E0,1.1566534E1,0E0,0E0,1.2430298E1,1.4070305E1,0E0,6.9795837E0,0E0,0E0,0E0,0E0,0E0,7.222619E0,6.2058315E0,1.0309059E1,7.0674677E0,0E0,0E0,0E0,0E0,0E0,0E0,0E0,0E0,0E0,0E0],"parents":[2147483647,0,0,1,1,2,2,3,3,4,4,5,5,6,6,9,9,10,10,11,11,12,12,15,15,16,16,17,17,20,20,21,21,23,23,29,29,30,30,31,31,32,32],"right_children":[2,4,6,8,10,12,14,-1,-1,16,18,20,22,-1,-1,24,26,28,-1,-1,30,32,-1,34,-1,-1,-1,-1,-1,36,38,40,42,-1,-1,-1,-1,-1,-1,-1,-1,-1,-1],"split_conditions":[1.6703095E-2,-1.6996013E-2,5.2796293E-2,8.52963E-5,4.1707303E-2,1.5730575E-2,9.552885E-2,8.470356E-2,-1.9389054E-2,8.857078E-2,-5.4365747E-2,-7.1653925E-2,6.773217E-2,-2.8283877E-2,6.261343E-2,1.2274119E-1,-1.0994533E-2,6.1181042E-2,-2.3732627E-2,8.205023E-2,9.0299055E-2,1.2126231E-2,-2.3765614E-2,-1.02349475E-1,6.2900975E-2,8.803969E-2,-1.6002592E-2,-2.0856768E-2,1.0054264E-1,